/*
 * data_allocation_8_8_8.h
 * Nazareno Bruschi <nazareno.bruschi@unibo.it>
 *
 * Copyright (C) 2019-2020 University of Bologna
 *
 * Licensed under the Apache License, Version 2.0 (the "License");
 * you may not use this file except in compliance with the License.
 * You may obtain a copy of the License at
 *
 *     http://www.apache.org/licenses/LICENSE-2.0
 *
 * Unless required by applicable law or agreed to in writing, software
 * distributed under the License is distributed on an "AS IS" BASIS,
 * WITHOUT WARRANTIES OR CONDITIONS OF ANY KIND, either express or implied.
 * See the License for the specific language governing permissions and
 * limitations under the License.
 */


#include "pmsis.h"

#define WEIGHT_INT8_DATA {-37, 14, 80, 57, -95, -79, -7, 44, -98, 25, -49, -83, -30, -110, 3, 21, -15, -65, 8, 73, 42, 5, -28, -25, 15, 68, -128, 43, 31, 50, -128, 127, 1, 86, 24, 48, -17, -39, 88, -40, 67, -11, 56, 12, 10, -8, 127, -9, 9, -66, -102, -28, -36, -70, -128, 93, -33, 116, -37, 5, -1, -19, 66, 31, 43, 70, 41, -1, 119, 64, -54, 84, -97, 127, 38, -17, 43, -55, -39, -90, 0, 5, -14, -103, 101, 108, 40, -82, -28, 36, -92, 118, -54, -26, -31, 127, 22, 5, -11, 30, 5, 38, -113, 127, 127, 13, 46, -128, -90, -3, -5, -24, 21, 57, -43, -51, -1, 16, 76, -92, -15, -60, 12, 43, 49, -47, 86, 15, -54, 86, 81, 1, 100, 0, -15, 101, -3, 0, -23, 40, 113, 24, 127, 2, 94, 39, 111, 21, -80, 30, 11, 53, 109, 114, 66, 49, -33, 15, -67, -10, -104, 41, 11, -31, 52, 16, 108, -39, 106, 49, -31, 21, 31, 20, 11, 17, -75, 38, -72, 27, -69, 5, -63, 42, -21, 102, -65, 127, -23, 10, 3, 6, 38, -60, 88, -18, -2, -128, 60, -117, 119, -9, 5, -9, -53, -58, 1, 28, 96, -66, -108, 32, 41, -85, -57, -18, 127, 6, 14, 66, 58, 19, 35, 79, 15, -128, 17, -42, -91, -2, -102, -115, 62, -44, 44, 17, -105, -58, -83, 88, -13, -78, -15, 57, -31, -100, -109, 4, 57, 47, 52, -69, 55, 81, 23, 19, 127, 38, 23, -128, 98, -7, -122, -8, -71, -88, 29, 52, 31, -128, -31, -128, -34, -13, 35, 91, -35, -64, -120, 22, 52, -49, -22, -22, 97, -35, 9, 48, \
-82, 40, -17, 9, -97, 66, -41, -28, 8, -44, -24, -62, -125, -57, -7, 1, -60, 91, 41, 89, 95, -114, -23, -14, 67, -58, 105, 19, -20, 7, -49, -102, -42, -51, -21, -72, 45, 27, 15, 46, 36, 117, -19, 60, -34, 6, 50, 127, 2, 28, -43, 45, 104, 111, -69, 62, -5, 19, -10, 46, 41, -26, -128, 60, 118, 75, -17, 112, 34, 15, 118, -29, -11, 15, -30, 90, 10, -19, -12, -128, 59, -42, -128, -81, 102, -86, -40, -73, -50, -8, 106, -9, 37, 57, 67, 86, 18, 10, 15, 46, 127, 9, 70, 26, 7, 126, -128, 49, 89, 72, -35, 30, -54, 16, -107, 127, -128, -15, -99, -71, -48, -21, 44, -47, 10, 1, 26, 6, 24, -59, 33, -10, -32, 72, -128, -27, 18, 2, -3, -76, -67, 51, 101, -102, 23, 55, -14, -96, -38, 91, 65, 127, -76, -79, 69, -33, 16, -31, -2, 79, 54, -70, 92, -82, -109, 0, 28, -5, -70, 55, 37, -77, -43, -103, 127, -7, -31, 120, -90, -3, 127, -73, -119, 72, 53, -65, 35, -59, 72, -26, -111, -72, 14, -109, 91, 71, -35, 66, -6, -7, -4, 50, 127, -5, 33, 91, 92, 14, 33, 49, -55, -128, 95, -128, -128, 63, 17, -5, -90, 12, -21, 6, -40, 29, -73, -104, -77, 75, -68, -128, 127, 0, 37, -11, -96, -10, 69, -12, 11, 104, -95, 61, -64, 127, 11, 36, 10, 56, -115, 83, -30, 84, -29, -3, -15, -43, -9, 37, 32, 35, -128, 70, -48, 4, 91, -114, 51, 38, -128, -49, -23, -98, 39, 15, 46, -60, 37, 15, -15, -29, 6, -108, -36, 109, 18, -112, -19, 5, \
82, 4, -26, -21, -12, -29, -26, 47, 7, -49, -45, -22, 10, 14, -31, -98, 9, -24, -3, -128, 87, -117, 36, 78, -61, -89, 26, -30, 68, 0, 113, -105, 7, 71, -6, 12, -47, 90, 48, -32, 127, 32, 1, -23, -20, 101, 64, -81, -83, -21, -128, -128, -77, -5, -38, 10, 44, 19, -128, 14, 64, -70, 13, -72, -5, 39, -33, 27, -13, -105, 46, -49, 14, -2, -50, -99, 35, -22, 17, -97, 14, -107, -113, -40, -34, -58, 14, 89, -16, -6, 127, -25, 99, -124, 13, 127, -26, 10, -66, -15, -31, 8, -5, 20, -6, 118, 67, -21, 48, -14, 1, 108, -55, 12, -39, -25, -128, 22, -45, 127, 29, 93, -64, 28, 90, -83, -24, 8, 16, -67, 2, -32, -11, 11, -54, -86, -46, 48, -51, -19, -4, 42, 11, -90, 26, 67, 26, -8, -57, 98, 85, -105, -18, 77, -64, 44, 54, 76, 114, 8, -8, 66, 10, -30, -61, -47, 117, -52, -96, 42, -27, 24, -93, -17, -21, 107, -126, 34, -6, 39, -88, 77, 3, -30, -75, -33, 61, 35, -16, 53, 84, -62, 41, 59, -20, 127, -71, -8, -118, -45, -13, -48, 70, -36, -14, -25, -45, 11, 98, 25, -42, -31, 46, 12, 78, -96, 96, 34, 34, 8, -2, -71, -27, -82, -50, 127, 34, -53, -35, 14, 53, 14, 27, 74, -67, 84, -40, 70, 127, 124, -6, 44, 4, 106, -23, 18, -21, -81, 33, 20, 23, -46, 40, 21, -102, -57, 66, 20, -102, -71, 37, 127, -10, -56, -55, -35, -1, 31, 58, 30, -8, 79, -56, -128, 1, -9, 14, -24, -8, 4, 31, 55, 3, 10, 44, -25, -13, 85, \
9, -31, -79, -61, -18, -59, -28, -24, -1, -6, 37, 58, -2, 51, 15, 35, -57, 33, 15, -117, 34, -83, 127, 86, 27, 37, -9, 75, 22, 57, 64, 11, 68, 42, -65, 5, 39, -49, 1, 0, -45, -46, -17, 37, -42, -122, 36, 22, 11, 20, -34, 23, -36, 127, -17, 31, -73, -116, -50, -31, 71, -37, -81, 35, -27, 28, -37, 8, 72, 66, 40, -77, 111, 96, -42, 68, -101, -12, -28, 61, -95, 72, 34, -85, 51, 23, -32, 127, 62, -15, 27, -56, 37, 42, 31, -31, 39, 127, -10, 16, 8, -114, -26, 110, 57, -103, 59, -44, -65, 57, -103, 68, 51, 23, 26, -24, 101, 71, 21, 49, -107, 78, -114, -4, 36, 4, -45, 14, -85, -6, 59, 37, 42, -39, -34, 3, 21, 28, 104, -21, -128, 127, -38, 18, 108, -49, 57, 30, -18, 58, 86, -72, 1, 40, -28, 40, -91, 76, 51, -25, 71, -66, 15, -66, -24, 41, -36, -20, -9, -15, 106, -7, 37, 9, 40, -43, -37, -80, -29, -90, 99, -14, -34, -6, -32, -128, -36, 56, 57, -35, 51, -5, 41, 65, -127, 39, -14, 127, -29, -128, 27, 24, -7, 37, 33, -24, 49, 55, 1, -84, 18, -40, -42, -26, 72, -50, -32, 36, -65, -35, 46, -35, 74, 55, -94, -37, -54, -42, 78, -59, 81, -82, 25, 11, -23, -20, 61, -45, 1, -18, -42, -50, -37, 6, 71, -67, 6, 24, 13, -66, -90, -25, 14, -48, -11, 3, -33, 33, 17, -41, 11, 41, -81, 89, 127, -5, -62, 47, -65, 94, 57, -111, 12, 127, -33, -5, 45, 13, 14, 61, 6, 12, 94, -70, 8, 21, -2, 48, \
-69, -30, -12, -7, -93, 30, -13, 75, 24, 5, 22, 57, 42, 55, -81, -128, 4, 41, 31, 127, 93, -14, -33, 21, -66, 127, 9, -12, 68, -4, -92, -3, 14, 77, 88, -68, 89, -11, 116, -10, -70, -36, -70, -19, 49, 43, 91, -71, -119, -38, -48, -1, -62, -39, 80, 38, -6, 23, 34, -63, -41, -108, 12, 8, 0, -38, 26, 78, 127, -45, -53, -33, -64, -3, -7, 47, -71, 100, -44, 41, 35, 14, -5, -85, 1, -4, 36, 1, 50, 10, -59, 15, -74, 2, 111, 22, 127, -108, 127, -128, 55, -56, 17, -128, 34, 2, -74, -57, -15, -11, 66, -23, -32, -47, 2, -10, -53, -2, -23, 127, 18, 50, -100, -28, -128, 59, 52, -13, -103, -114, -45, 30, -15, 91, -22, -87, -5, 39, -49, -48, -83, -24, -7, 84, 95, -56, -34, 60, -28, -128, -8, 17, -28, 9, 81, 50, 11, 72, -18, 127, -61, 56, 5, 21, -10, 61, -104, 127, -38, -128, 66, 41, -38, 3, 4, -89, -62, 14, -28, 83, 39, -70, 64, 124, -7, 63, -18, -9, -46, -29, 32, 34, 18, -29, 127, -75, 97, -54, 12, -24, -52, 49, -30, -77, -50, 6, 37, -46, 127, -1, 29, -45, 64, 43, -66, 49, 6, -51, 46, -39, -24, 27, -33, 126, -10, 61, 3, 48, -57, -113, 32, -47, 54, -73, 4, 98, 30, -9, -128, -40, -62, 121, 33, -45, 22, -17, -62, -72, 70, 76, 43, 109, -8, 25, 63, -37, 43, -49, 118, -122, 48, 30, -47, 53, -106, -12, -9, 50, -28, 71, -79, 64, -128, -50, 87, -17, -64, 18, 85, -7, -22, -20, 66, 21, 117, 42, -55, 5, \
-17, -22, 22, 113, -5, 6, -24, -54, 94, -78, -26, -19, -49, 26, -77, 29, -19, -64, -5, -55, -58, 37, -8, -6, 23, 60, 4, -66, 58, 39, -12, -63, -27, 42, -90, 3, -109, -27, 4, 65, 44, -50, -5, 10, 74, -17, -10, -71, -75, -81, -18, -16, -37, -36, 127, -72, -99, 5, -125, -12, 35, -49, -82, -41, -31, -104, -58, 28, 5, 10, -5, 22, 115, 47, 28, 62, -6, -32, 62, 21, -71, 16, 41, -1, 24, 81, -54, -128, -28, 35, 54, -8, 61, 83, -39, 10, 42, 100, 63, -128, 64, 27, -49, 64, -17, 40, -41, 19, -34, -43, 58, -70, -4, -20, 20, -5, 48, -88, -49, -101, -53, -123, 19, -22, 24, -105, 44, 127, 18, 95, 24, 5, 11, -88, -2, 84, -27, -128, 76, -128, -22, -12, -51, 46, 1, -34, 81, -47, -55, -32, -31, 60, -96, 75, -79, -36, -28, 127, 40, 110, -25, -56, -81, 41, -119, 20, -21, -128, 20, 42, -23, 40, -49, 14, -53, -56, 64, 52, 0, -65, 40, -10, 119, -23, 3, 103, -38, 2, -48, 48, 118, -12, -1, 44, 6, 44, 46, -14, 69, -128, -19, 0, 67, -8, -5, -91, 9, -44, -22, 22, 27, 93, -54, -12, -41, -19, 47, 79, 5, -34, -2, 12, 54, -44, -125, -3, -69, -18, 73, -55, 83, 12, -10, -60, 127, 98, -21, -54, -32, -5, 11, 8, -40, 8, -1, 73, -83, -54, 111, 117, 38, 5, -39, 38, -10, 127, -128, -78, 43, 25, -3, 8, -63, 30, -41, 61, -31, -14, -2, 127, -29, -54, -3, 13, -128, -72, 95, -22, 22, -62, -45, -52, -91, 30, -14, 10, 51, -62, \
-27, -64, -102, 90, 0, 56, 39, -56, 54, 86, 83, 12, -58, -69, -9, 6, 57, -33, -1, -60, -78, 78, -24, -20, 87, -27, 32, -33, 78, 44, -8, -106, -30, -40, -41, -80, 11, 18, -50, -69, 15, -53, -88, -51, 37, -50, -122, 93, 66, 14, 68, 8, -12, 42, 51, -126, -20, -27, -69, 51, -113, -3, 71, 60, -60, -63, 97, -25, -28, -109, 55, -11, 55, 33, -27, -26, 61, 127, -9, -124, -12, 127, 23, 30, 35, -114, 23, -66, 39, -12, -128, -44, 18, -76, 54, 55, -8, -89, 99, 13, 0, 14, 31, -45, 7, 65, 12, -2, -23, 37, 101, -5, 62, 1, 4, 28, 11, 21, -73, 35, -42, 69, -24, 65, -20, -78, 62, 60, 18, -61, -87, 21, 54, -6, 13, -48, 3, 66, -69, -40, 127, 11, 104, -8, -64, -59, -42, 114, 19, -56, -54, 19, -14, -22, 40, 9, 44, -115, -34, 60, 90, 74, 45, -128, 122, -31, 31, -23, 50, -40, -5, -19, -64, -48, 23, -109, -62, 17, 99, 35, -1, 9, -61, 15, -41, -98, 55, 11, 26, -85, -79, -97, -96, 48, 16, -97, 25, 24, -35, 98, 5, 11, -41, 112, 107, 94, -37, 68, -87, 33, -73, -36, -126, -59, 58, -103, 4, -10, -34, 41, 3, 43, -42, -26, -51, 127, 24, 114, -47, 3, 70, -44, -128, 127, -1, -79, 51, 38, 90, 114, -16, 125, -103, 45, 127, -82, 62, 1, 37, -19, 7, -61, -29, 102, 110, -102, -92, 28, 0, 2, 115, 116, -4, 102, 12, 10, -69, 54, 14, 29, -22, 29, -44, -101, -2, -31, 47, -10, 95, -43, -8, -80, -51, -90, -123, -74, 56, -4, \
-40, 17, -19, -59, -11, 44, 22, -79, 32, -4, -22, 108, 14, -25, 14, -24, 40, -4, 127, 98, -91, -68, 19, 17, 8, 62, -73, 29, 49, -17, -13, -71, 76, -13, -9, -25, 54, -58, -56, 111, 98, -51, 62, 47, 127, -79, 61, -17, 119, -6, -70, -46, 18, 78, -58, 77, 37, -21, 70, -81, -13, -128, 73, 73, -28, 40, -22, -25, -22, 76, -40, -67, -46, 69, 53, 5, 33, 31, 29, -34, 54, -19, -85, -3, -10, -22, 9, -58, 40, -18, 125, -15, -23, -10, -39, 6, -59, 37, 127, 127, 29, 11, -20, -31, 17, 74, 31, 17, -15, 51, 45, 40, -96, -27, -128, -1, 9, 93, 21, 8, 32, 30, 51, 34, -18, 6, -34, -6, 54, -123, -31, 19, -17, -37, -42, -4, 59, -15, 64, 36, 39, -51, 126, 100, -87, 23, 7, -18, -128, -2, -11, -128, -30, 17, 19, -43, -106, 85, 3, 55, -128, 27, 90, 127, -48, -10, 19, 45, -111, 19, 43, -78, 46, -51, -9, -33, -58, -85, 42, -92, 19, -44, -3, 81, 127, 4, 127, -24, 9, 15, -70, 35, -61, 92, 39, 26, 2, 9, -56, -22, 65, -17, 50, 119, 35, 66, 127, 65, -3, -54, -37, 14, -72, 45, -9, 110, 75, 40, -26, -44, 0, -6, -94, 23, 82, -16, 117, 99, -57, 40, -10, 19, 30, 32, 21, 1, -3, 58, 21, -128, -25, -51, -59, 70, 97, 34, 13, -39, 30, -126, -128, -66, 77, 7, -4, 18, 12, -21, -39, -5, -113, -28, -112, -64, 3, -14, 85, 19, -87, 39, 13, -50, 34, -11, 58, -128, -64, -112, -82, -19, 38, -128, -2, -11, 14, 36, -35, 10, \
39, 104, -14, 78, -108, 45, -23, 37, -2, -10, 20, 48, 77, 36, 33, -14, 53, -42, 111, 48, 11, -62, 47, 100, -1, -17, -41, -13, 5, -21, -39, 37, 48, -8, -4, 46, -14, -28, -28, 82, -32, 46, -122, -128, -23, 9, -4, -49, -38, 123, 91, -74, 2, 44, 119, -13, -112, -77, -1, -114, 29, -43, 99, -33, 58, 67, 50, -22, -2, -31, -57, -54, -44, -64, 26, 76, -26, 4, -128, 37, -62, 28, 123, 75, -16, 84, -91, 59, -48, -51, -5, 4, 73, 15, -88, 6, 90, 39, 51, 0, -77, 25, -10, 61, -11, 38, -5, -88, -13, 66, -12, 0, 42, -4, -52, -43, 57, -33, 67, -76, -84, 31, 72, 34, 40, 104, -35, 67, -98, -32, -66, -38, 49, -88, -21, -44, 11, -17, -57, -128, -108, -51, 60, 69, -7, 41, -4, -42, 69, -2, 5, -48, 48, -71, 20, 15, -128, 35, -24, -118, 1, -20, -117, -126, -128, 60, 62, -47, -86, -128, -100, 10, -33, 11, 36, -108, 1, 54, -37, 32, 11, -6, -52, -78, 41, -98, 35, 9, 67, 53, 16, -32, 86, -32, 30, 10, 7, 94, 5, -128, -19, 26, -9, 22, -46, 34, 10, 94, 88, 14, 111, 11, 127, 50, -97, -69, 127, 28, -15, 15, -117, 2, 109, -21, 6, -55, -88, 76, -31, -109, 41, 18, -80, 127, -61, -128, 102, 35, -27, 49, 103, 111, 13, -110, -128, 106, -86, 127, 127, -88, -3, 18, 31, -31, 80, -128, 108, 23, -38, 1, -17, 110, -22, 81, 57, 90, -5, -46, 9, -61, 1, -70, 71, 127, 90, -1, 38, 127, -4, 16, 24, -92, 11, 40, -128, 47, 30, -89, \
-8, 34, 4, 78, -1, -118, 53, -55, -30, 43, -35, -83, -63, 23, -62, -92, -9, -11, 8, -16, -55, 41, 66, 35, -128, -1, 83, 6, 21, -39, -8, -128, 44, 9, -11, -11, 34, 61, 55, -26, -39, 127, 6, -55, -58, 60, 0, 2, -3, 115, -48, -75, 14, 11, -56, -71, 55, 113, -57, 60, -12, 2, -3, 1, 127, 12, -67, 3, 127, -23, 34, 53, 2, -12, -10, 60, -57, 93, 47, -128, -47, -15, 30, -42, 127, 73, 19, -12, -128, 13, -128, 50, -19, 75, 61, -47, 38, 63, -91, -69, 3, -40, -22, 27, -59, -1, 35, -59, 36, -49, -7, 40, 22, 27, -58, 60, 7, 69, 3, -107, 43, 23, -95, -44, -31, 127, 75, 7, 34, -70, -23, -26, 21, 96, -105, 127, 15, -30, 97, -128, 11, 99, -128, -128, 120, 20, -58, -7, -65, 35, -126, 118, 106, 108, -1, -6, -2, 84, -74, 9, -20, 63, -25, -37, 113, 62, -81, -27, -12, -12, -128, 67, 83, -21, -35, -51, 32, 64, 111, 16, -15, 54, -27, -28, -79, -29, 89, -32, 38, -14, 80, -25, 119, -25, -128, -24, -57, -39, -103, -70, -48, 127, 59, 23, 39, -81, 2, 0, 30, 127, 59, -22, 28, -20, 71, -30, -69, 6, -43, -74, -68, -17, 18, 106, -95, -128, -25, 0, -36, -7, -42, 106, -44, 82, -30, 127, 62, -84, 94, 0, 78, -93, -117, -4, 70, -85, 70, -19, 88, 127, -18, 87, -51, -88, -13, 37, 54, -14, -21, 36, -128, -60, -109, 52, -18, -2, 106, 18, -75, -68, 97, -64, -45, -73, -32, -56, 31, 26, -37, -17, 57, 34, -69, 39, -96, -128, -70, 73, \
-66, -65, -60, -18, 25, -13, -83, 102, -110, -14, 26, 19, 40, 48, 127, -55, -36, -79, 2, 18, -128, -66, -42, 70, -68, -66, 31, 100, -6, -40, 30, 127, 13, 6, 21, -60, -34, 6, 50, 17, -64, 55, -12, 95, 34, 106, 23, 123, -5, -111, 29, 127, -50, -43, -119, -2, 29, 127, 114, 42, -31, -101, -56, -97, 1, 33, -56, 29, -29, -1, 69, 127, -50, 19, -26, -29, 25, -54, 86, -93, 127, -20, 33, -64, -54, -34, 86, 109, -74, 41, 5, -116, -53, -51, -10, 36, 41, 2, 45, 34, 86, 36, -25, -33, -55, -70, 24, -9, 6, -19, 75, 32, -59, 18, 81, -47, 2, 77, -8, -5, -2, -115, 32, 6, -3, -3, 57, -97, 83, -89, 116, 40, -36, 110, 76, 58, -118, 70, -15, -7, -64, -98, -51, 74, -12, -46, 60, 52, -4, 17, 17, -28, 4, -4, 24, -83, -21, -6, -14, -16, -45, 31, -12, -14, -55, 47, 34, -45, 103, 27, -51, 67, 18, -71, -112, -90, 7, 55, 47, 10, -69, 72, 90, 119, 4, 127, -76, -58, -67, 9, -47, -2, 44, -30, -71, -70, -19, -63, 73, 33, -23, 20, 55, -44, 2, 111, 42, 36, 19, 127, 65, -52, 37, 91, 42, 58, 14, -19, 51, 17, -49, 34, 5, 97, 40, 38, -82, -53, 18, 32, 35, -94, -58, 20, 53, -128, 12, 7, 86, 120, 2, -45, -79, 127, 53, -30, 105, -21, 30, -73, -67, -33, 70, 54, 22, 14, 10, -69, -29, -60, 37, 20, 81, -39, 32, -1, -31, -128, -4, 5, 24, -29, -39, 25, 77, -23, -21, -20, -84, 39, -9, -44, -18, -20, -17, -64, -30, 35, \
53, 16, 127, -84, -23, 18, -72, -128, -1, -23, 119, -98, -33, 69, -98, 34, -44, -22, -96, 26, -25, -1, 1, 30, -28, 86, -41, -7, 31, 113, 23, 29, -29, -128, 68, 19, -57, -20, 55, 127, -24, -73, 2, -65, -99, 41, -49, -7, 9, -9, -53, 52, -123, 2, -87, 127, 40, -36, 17, 46, 49, -128, -14, -115, 57, 70, -87, 27, 38, 38, 49, 78, -47, 28, 8, -8, -12, -26, -55, 57, -13, 57, 109, -38, -6, 69, -105, 29, -123, -42, -22, -66, -6, 55, 12, 28, 100, -54, -2, -2, 50, 116, -98, -77, -31, -28, -31, -51, 32, -28, 75, 21, -63, -33, 55, 58, -47, -62, 35, -29, -109, -50, -11, 127, -58, -2, -5, -93, 16, -79, -35, 42, 38, 5, -35, -19, 93, 4, 36, 18, -33, 37, -44, 24, -30, 20, 20, -5, 79, 79, 107, -38, -87, -77, -1, -9, 63, 21, -98, 127, -31, -51, 31, -97, 59, -122, 5, -75, -34, 1, 18, -36, -110, -60, 127, -128, 55, 23, -128, -74, -113, 112, 6, 56, 7, -7, 7, -12, -30, 53, 61, 9, 26, -17, 14, 26, -29, -7, -52, 3, 8, -32, -7, 98, -3, -7, -60, -22, 69, -87, 127, 56, -30, -30, -21, 41, 32, -20, -93, -8, 122, -44, -119, -98, 58, -48, -89, 18, 73, -33, 49, -43, 1, -28, -82, 24, -20, 53, 16, -36, 33, 72, 43, -38, 57, 39, 44, -46, -113, 35, -77, -123, -27, 109, -15, -48, -68, -3, -48, -107, 40, -42, -51, -16, 49, 55, 35, -77, 0, -45, -79, -24, 108, 22, 23, 61, -3, 91, -11, -55, 11, -104, 50, -9, -128, -2, 82, -128, \
-62, 94, -12, -8, 90, 1, 64, -53, -42, -31, 48, -128, 81, 1, 127, 26, 13, 44, -36, -19, 43, 2, 50, -2, -80, 35, 2, -19, -73, 67, 63, 31, -55, 8, -53, -26, -94, 29, 67, -32, -128, 59, -30, 103, -38, -128, -17, -128, -60, 79, 62, 22, -109, 18, 68, 52, -51, 50, -12, -20, -30, 4, 56, -37, -79, -84, -49, -1, 7, -65, 63, 23, -33, -14, -24, -11, 71, -55, 5, 17, -64, -46, -33, -5, -71, -38, -60, -56, -35, 79, -62, 51, -49, 9, -107, -78, 23, 75, -22, 20, -15, -38, 45, -43, -55, -58, -36, 27, -94, -51, 26, 17, 81, 30, -58, 0, 89, -77, -61, 17, -45, 44, -80, -58, -15, 43, 65, 67, -128, -37, -48, -57, -7, 9, 61, -119, 119, 57, -35, -69, 36, 102, -28, 89, 3, 23, -52, 32, -23, 6, 43, 7, -9, 124, 66, -121, 18, -37, -71, 42, 79, 61, 24, -56, 59, 62, 105, -48, -90, -28, -4, 92, 122, 2, -12, -35, -95, 51, -2, -50, -32, -75, 81, -81, -1, 43, -48, 107, -19, -30, 13, -18, -62, -87, 114, 4, -18, -116, 109, -32, 59, 17, 58, 67, -37, -35, -13, 45, -73, -65, 40, -18, 116, -3, 29, 2, -2, -61, 24, 61, 56, -66, 4, 71, 30, 76, -83, 104, -74, 13, 97, -29, -128, -41, -5, 47, 51, 71, 67, -33, 20, -104, -30, -19, -10, -51, 74, -114, -30, 16, 41, 86, 40, -17, 51, 35, 80, -102, -78, -24, 127, 34, 76, -22, -76, -128, -34, 30, 79, -32, 22, 38, 48, -14, 4, 21, -40, -90, -51, 28, -109, 2, 53, -19, -46, 32, -42, -55, \
-71, -8, 57, 24, -115, -79, -106, 20, 62, -25, -13, -13, -84, -29, 20, 45, 105, 98, -23, 44, -59, -51, -31, -19, 10, -64, -34, 50, -52, 68, 19, -95, -128, -9, -106, -96, -108, -68, -32, -64, -36, -40, -128, 69, 24, 17, 20, -33, -2, -37, 2, -102, -11, 65, 47, 99, -25, 7, 63, -39, 106, -27, 10, 51, -51, -57, -104, -68, -82, -4, 22, 17, -107, 57, -48, -6, 78, -21, 15, 127, 2, -23, 127, 74, 53, 76, 107, -37, -54, 39, -37, -47, -58, -13, 8, -115, -7, -8, -4, 64, -49, -59, 91, 127, -81, -34, 5, -106, 50, 96, 10, -128, 70, -46, -48, -23, 60, -69, 39, 42, 19, 48, -8, 98, 9, -67, 73, 75, 110, -4, 29, -17, 51, 5, -47, -45, -87, -23, -23, 32, -104, -62, 34, 83, -4, -7, -22, 94, -7, 31, -57, 35, -57, -75, -17, -110, 27, -27, -128, 20, 84, -107, 31, 46, -32, 100, 35, -77, 12, 30, -44, 36, -32, 5, 40, -47, 67, 8, -81, -87, -28, -30, 20, -93, -63, -76, 28, 127, -90, -37, 40, 16, 21, 79, -12, 54, 14, 14, -36, -46, -125, 76, -73, -89, 26, 41, 5, -7, -3, 122, 49, 46, 39, 43, 44, -64, 74, 70, -91, -69, 19, -38, 30, 58, -15, 37, -25, -20, -4, -82, -13, -20, 12, -52, 61, -82, 2, 37, 112, -21, 15, 83, -112, -60, -59, 27, 104, 106, 38, -107, 22, 20, -45, 30, -38, -59, -29, -29, 26, 1, -2, 39, -78, 20, -110, 18, 15, -15, 8, -6, -14, 43, 27, -13, -107, 39, -27, 127, 21, -57, -35, 127, 8, -110, 25, 7, -25, 35, \
-56, 17, 71, -25, -3, 52, -67, -40, 11, 16, 68, 24, -8, 50, -93, -77, -40, -127, 59, -98, -3, -56, 127, 66, -53, -16, -85, -91, 10, 59, -5, 54, -18, 6, 49, 5, -27, 80, -53, 55, 41, 77, -56, -63, 62, -102, 19, -55, 61, 20, -105, 52, 24, 94, -91, 18, -110, 39, 21, 94, 19, 45, -2, -55, -19, -13, -77, 57, 20, -101, 17, 37, -9, 24, -2, 21, -78, -85, -15, 81, 1, -3, 76, 4, 4, 54, 108, -25, -57, -12, -123, 101, 36, 65, 19, -128, 38, 39, -46, 53, -18, 81, 53, 84, -72, -52, 82, 21, 103, 72, -86, 24, -26, -88, 38, -18, 7, -73, -30, 102, -36, 13, -10, -63, 26, 88, -42, -50, 80, 63, 52, 76, -1, -55, -27, -128, -120, 8, -128, -46, -44, 26, -42, -96, 16, 23, 24, 51, -49, -56, 13, 24, -82, 53, 13, -61, 37, -10, -9, 41, 56, 14, 78, -40, 107, 27, -7, 0, -78, 39, -27, -3, -78, 23, 9, 49, 4, -59, -22, -24, 27, -28, -3, 80, 5, -81, 18, 16, 69, 25, 42, 127, -58, 72, 75, 10, -29, -106, 38, -36, -15, -31, 70, 127, 46, -43, 7, 46, 74, -66, -108, 44, 26, -121, -4, -68, 87, -6, -9, 33, 117, 74, 17, -19, -30, 122, 101, 40, 89, -40, -85, -61, -34, 78, 18, -35, 32, 88, 59, 43, -12, -28, 15, 12, 94, -117, 23, -39, -105, -23, -61, -39, 44, 23, 82, 0, -16, 104, -86, 72, -59, 30, -30, 15, -72, -8, -23, -13, -52, -5, -20, -22, -88, 67, -39, 17, -80, 39, 42, 16, -93, 97, 73, -64, 97, 3, -74, 47, \
21, 92, -1, 37, 49, -17, 15, 24, -88, 22, -63, 33, -108, -99, -13, 72, -35, 39, -55, -15, -33, -19, -128, 42, -123, -123, -92, 103, 90, -31, -35, -78, 43, -128, 76, 5, -13, 42, 38, 60, 100, 53, -9, -36, 15, -68, 2, 101, 28, -67, -87, -94, 5, -26, -44, -54, 23, -23, 127, 7, 66, 65, 74, -31, 90, -43, 20, -22, 126, -45, -42, 36, -32, 117, 127, -12, -80, 11, 93, -98, -110, -60, -31, 48, 127, -25, 26, 68, -71, 65, 8, 17, -11, 87, 87, -64, -30, 30, 7, 92, 127, 117, -51, 70, 29, 55, 42, 80, 43, 8, 88, -79, 16, 66, -42, 15, -19, -80, 56, 111, 25, 38, 112, 64, 8, -61, 58, -27, -10, 72, 86, 4, -114, 8, 19, 17, 1, -10, -25, 122, 60, -33, 39, -34, -85, -39, 91, 66, 124, 20, 40, 77, 81, 41, 37, 56, 30, 46, 62, 64, -72, -66, 30, 36, 30, -11, -30, -13, 16, 7, 19, -118, 127, 3, 63, -11, 120, -105, -27, -26, 78, -128, 75, 49, -101, -128, -46, 14, -84, 18, -66, 1, -64, -64, -18, 124, 20, 29, 45, -128, 60, -84, -85, -84, 0, -11, 40, 39, -25, -128, 53, -20, -18, -95, -61, 88, -41, -97, -19, -17, -65, -98, -29, -32, -33, -106, 81, 39, 66, -28, -35, 42, -81, 48, -95, 36, 82, 21, -88, -70, -36, -18, 32, -12, 17, 18, 1, 107, 20, -11, 21, -57, 124, 27, -105, -26, 51, 27, -44, 85, 78, 1, -57, 71, -16, -21, -9, 127, -35, -103, 12, -28, 12, -84, 62, 28, -17, 22, 53, -25, -90, -66, -6, 6, -25, 62, 26, -49, \
15, -69, -53, 77, 127, 14, -45, 52, -43, -81, 120, -44, 62, -109, 8, 15, 27, -32, -47, 17, 127, -4, -48, 50, 36, 75, 25, 108, -72, 19, 29, -128, -2, 4, 5, 19, 75, 8, 17, -35, 82, 110, 26, -26, -128, -34, -128, -82, 9, -6, 110, -128, 81, -7, -13, -32, 7, 56, -32, -18, 28, 127, 11, 53, -23, -1, 38, -105, 118, -3, -89, 109, -16, 25, 36, 79, -14, -32, 127, -13, 64, -55, -24, -43, -14, -13, -85, -40, 42, -35, 4, 0, 8, 5, 53, 92, 30, -29, -36, -50, -37, 65, 17, -27, -38, -69, -58, -10, -18, 5, -41, 62, 51, 105, -95, 65, 116, -8, -128, 114, -41, -2, -128, -41, 15, 0, 58, -128, 68, 54, 83, 13, -39, 6, 15, -2, -4, 35, -128, 71, 113, -32, 37, 122, 39, -49, 1, -43, -53, -20, -38, 127, 75, 53, -75, 67, -67, -9, -100, -55, -23, -50, 94, -6, -100, 44, 9, -30, -18, 41, -7, 118, 42, -128, 17, 1, 71, 55, -3, 127, -64, -43, -106, 78, 114, 43, -28, -80, -120, 103, -24, -100, 57, 127, -107, 39, -4, -66, 0, 17, -50, 51, -34, -120, 4, -94, 71, -43, -30, -83, 31, 45, -57, 54, -35, -36, -47, -33, -76, -95, 22, 109, -23, 8, 119, 13, 7, 12, 44, -3, -104, 7, -21, 17, 57, 20, 4, 104, 68, -32, -59, 16, 29, -19, -10, 68, 30, -44, -57, -128, -33, 62, 32, 17, -15, -68, 67, -73, 36, -50, 77, 91, 15, 2, -11, -19, -46, 29, 1, -16, 89, 44, 24, 46, 28, -37, -128, 76, -42, -41, 12, 71, 35, 127, 27, 123, -35, 5, \
19, 38, -23, -31, -65, -16, -14, -122, 32, 107, -37, 49, 7, 94, 53, 74, -128, 21, 2, 55, -113, -128, 105, -86, 60, -27, 51, 82, -34, -58, -71, -107, 42, 4, 61, 1, -43, -2, 21, 74, 72, -128, 28, 77, -23, 113, -61, 119, -29, -24, 102, 49, 76, 31, 4, -85, 13, -55, 41, 32, 33, -14, -128, -55, -100, -9, -15, 115, 13, -16, 61, 21, 24, 1, 118, 12, 98, 127, 118, -69, -45, 26, -40, 5, 44, -64, -64, 77, 85, 22, 78, -64, -128, 36, -39, -116, 28, -15, -66, -24, 12, -36, 120, -31, -101, 58, 21, -14, -44, -102, 10, -43, -65, -9, 13, 15, -1, 14, -65, -20, 127, 127, 36, -128, 74, 1, 45, -53, 31, -123, 127, 112, 12, -49, 77, -36, -28, -90, -128, -30, -110, -26, -50, 66, 72, 96, -15, 70, -70, -93, -33, -123, -68, -9, -66, 85, -44, -121, 8, -44, -28, 10, 33, -40, 57, -97, -14, 15, -128, -17, 23, -82, -3, -26, -43, 65, 76, -113, -40, -46, 44, 84, -21, 33, -9, -74, 48, -26, -7, -76, 80, -99, -115, 78, -76, -28, 20, -1, 2, -72, 35, -128, -29, -86, 5, -17, -128, 43, -62, -49, -7, -35, -55, -74, -13, 83, -64, -38, 11, -42, -14, -63, 44, -124, -71, -128, -48, -68, -45, -16, -51, -26, -41, 34, -1, 2, 63, -55, 8, 90, 79, 127, 54, -44, -104, -43, 97, 22, -1, 70, 15, -100, -43, -4, -32, -38, -11, 42, 49, -60, 9, -15, -23, -49, 81, -106, -60, -18, 93, 127, -8, -128, -48, 4, 98, -29, -12, 93, -72, -53, 9, 34, 48, -30, -10, -25, -36, -65, \
-42, -25, -60, 74, -43, -67, -75, 34, 40, -128, 18, 54, -112, 48, -46, 24, -72, 9, -11, 7, 37, -30, -3, -35, -4, -30, 78, 127, -27, 89, -67, -11, -1, 9, 61, 84, 25, 43, -24, 26, -96, 55, 23, 24, 127, -89, -89, 49, 4, -3, 29, 21, 100, -47, -53, -30, -1, -35, 127, 101, 79, 47, 89, -60, 48, -8, -4, -120, -27, -128, -20, -38, 47, 10, -9, -50, -21, -67, 127, -18, 39, 69, -81, 5, -58, 38, 9, 56, -32, -6, -48, -52, -13, 14, 45, -62, -92, -79, -49, 38, 98, 74, -44, 31, -26, -1, -43, 70, 47, 25, 68, -13, 32, 89, -61, -125, -14, -69, -72, 15, 127, 80, 27, -64, -26, -93, 64, -35, -1, -17, -73, 16, 20, 15, 57, 12, -21, 39, 32, 20, -12, 21, -25, 127, -79, 32, -19, 10, -43, 11, -22, -55, 47, 49, 81, 23, 20, 127, -83, 127, 29, -128, -26, 5, 86, -125, -87, -20, 4, 68, -47, 109, 51, -128, -42, 47, 1, -49, -29, -34, 127, 14, 56, 34, 49, -29, 56, -52, 53, -26, -68, -4, 73, -69, -39, -3, -66, 59, -13, -89, 16, -87, 92, 2, 35, -40, 48, 20, -99, 13, -120, 15, -90, 84, -127, 39, 14, -7, -128, -68, -7, -10, 43, 6, 13, 27, -22, -49, 70, -8, -44, 31, 56, -99, -111, 46, 65, -105, 16, -28, 80, 24, -8, -64, 75, -2, -122, -14, 15, -2, -31, 13, -43, 43, 8, 27, -26, -59, 116, -15, -104, 54, -83, -116, 31, -7, -32, 115, 32, -28, 38, -5, -11, 0, 63, 53, -42, -58, 31, -118, 52, -105, -49, -128, -93, 52, -79, -23, \
-98, 45, 53, 116, -21, -22, 4, 3, -29, 33, 101, -102, -9, 14, -28, -1, 20, 1, 38, 76, -26, 69, 38, 68, 33, 124, 6, 1, -27, -11, -9, -62, 19, 11, 78, -2, -23, -116, -22, -3, 25, -34, -21, 26, 82, 23, -22, 11, -7, 127, -9, 9, -46, 3, 90, 7, -43, 42, 14, -128, 27, 127, -75, 69, -53, 6, -23, 96, -82, -78, -58, 43, 9, -71, 81, -8, 45, -66, 39, 4, 64, -12, -8, -36, -29, 21, 17, 28, 28, -60, 49, -73, -23, 19, 115, -1, 10, 127, -13, -83, -40, 20, -12, 50, -63, 84, -48, -11, -25, -43, 65, -73, 65, 54, -43, 12, -10, -94, 48, -31, 52, -2, 4, -2, -37, 3, -8, 88, 48, 50, 119, 39, 6, -128, 60, -102, 64, -25, -30, -12, 55, -22, -36, -45, 88, 23, 15, 3, 75, -2, 71, 50, 55, 48, 43, 28, -75, 19, -85, -128, -37, 59, 105, 127, -22, 65, 99, 35, 11, 40, 80, -93, 26, -120, 19, 24, 6, -90, -48, 101, -31, -52, 6, 9, 68, -3, 1, 102, 4, -73, 0, -38, -2, -40, -38, -127, 5, 108, -61, 97, 26, -128, -36, 101, 101, 15, 85, 98, 14, -10, -54, 85, -111, 75, -40, 15, 92, -91, -30, -107, 52, -53, -62, 65, 96, -18, -27, 66, 90, 64, 56, -46, 37, 21, -15, 72, -128, -85, 61, -21, 48, -3, 117, 98, -29, -22, -65, 0, 127, 34, -64, -1, -90, -12, -13, -3, -108, 84, -36, -11, -70, -64, 43, -18, 23, -128, 105, -123, 54, 51, 13, 45, -35, -73, 3, 63, -11, -94, -16, -55, -1, 62, 16, 18, 57, 63, 15, 45, \
-74, -9, 21, 13, -100, -26, 17, 69, 63, -3, -83, -43, 15, -65, -44, -74, 38, -83, -42, -15, -39, 66, 58, -14, -52, -1, -100, 85, 1, -46, 81, 67, 109, -2, -49, -68, -24, 62, 90, 105, 4, -38, -17, 36, -28, 4, 97, 39, -11, -33, 9, 9, -26, -28, -34, 4, 75, 26, -63, 10, -7, -128, 95, 17, 5, -41, -128, 71, -79, 87, 35, -9, 18, 41, -21, 127, 127, -41, 111, -90, -101, 56, 84, -44, 7, -46, -1, 80, 58, 22, 22, -34, -4, 32, -23, -13, 51, -5, 61, 79, 127, 14, -50, 81, -44, -84, 13, 127, 66, -128, 57, -47, 113, -118, 5, 8, -6, 38, 31, 16, 102, 16, 42, -20, 76, -36, 47, -18, 99, -35, -54, 86, 64, -38, 60, 72, 27, 127, 35, -31, 53, 26, -104, -21, -119, 8, 83, -128, -70, 78, 7, -16, 15, -26, 24, 18, -48, 7, 87, 0, 8, 111, 5, -128, -68, -3, -34, 13, -58, 48, -49, 93, -39, 9, -117, 11, -28, 5, -69, 15, 8, 3, -10, 5, 123, 106, -32, 3, 76, -24, 72, 54, -9, 2, -77, 35, -74, 121, 82, -68, -22, -33, 50, -13, -11, -7, -85, 82, 33, -66, -9, -29, -59, -67, 20, 25, 28, -15, 18, -75, 91, 6, 73, -6, -19, 91, 49, 65, 63, -78, -80, 127, -21, 65, -41, 89, -7, 54, 35, -61, -83, -7, 31, 79, -2, -38, -36, -32, -118, -33, -30, 41, 38, -1, -18, 26, 70, 39, 20, 18, 78, 120, -9, 100, -59, -13, -128, 13, 48, 2, 4, 6, -128, 95, -121, -84, -50, 46, 2, -72, -8, 10, 82, 13, -51, -44, 8, 67, \
44, 89, -59, -32, 127, -3, 62, 53, -40, -98, -81, -27, 96, -128, 67, -77, 127, -35, 82, 41, -3, 45, 66, -24, 24, -28, 6, -128, 5, -124, 6, -55, -44, 20, 41, -125, 46, 94, -83, 27, -2, -15, -47, 9, 45, -44, -88, -23, -72, 44, -92, -7, 109, -128, -25, 2, 12, 75, -30, 86, -28, 127, -47, 11, -21, -44, -75, -110, 58, 127, 33, 0, 18, 16, 82, 125, -53, 65, 21, -44, 48, -53, 58, 92, 7, 19, 127, 11, 88, 36, 74, 65, -128, 97, 127, 76, 85, 12, 83, -19, 9, 41, 31, -71, 22, -44, -21, 94, 35, 79, 82, 112, 69, 12, 6, -84, -120, -15, -11, 59, -67, 37, -19, -121, -60, -100, -5, -2, -36, -128, 122, 1, -108, 22, 33, -14, 109, -1, 97, 69, -63, 4, 46, -1, 33, -13, -80, -87, -39, 2, -128, -75, -34, 97, -23, -6, 52, 87, 41, -97, -49, 41, 33, 80, -35, 103, -59, 98, 11, 41, -42, 45, -60, 96, -35, -70, 24, -27, -34, 45, 127, -92, 78, 58, -24, 126, 127, 42, -42, -67, -14, 127, -13, 120, -38, 17, -16, 43, -21, 19, -43, -7, 9, -39, 39, -97, 127, -108, -110, 123, 105, -42, 48, -57, 101, 1, 64, 21, 85, 116, -41, 3, 76, 28, 40, -29, -65, -65, 26, -29, -26, -2, 46, 49, -24, 67, -43, 20, 12, 43, 74, 30, -84, 75, 18, 74, 0, -45, 123, -128, -7, -24, 73, -69, -77, 50, 5, 1, 127, 47, 127, 58, -124, 62, 33, -106, 127, 26, 22, -50, -23, 26, -13, 3, 14, -38, 1, 4, -23, -87, -3, -99, 78, -9, 127, 88, -91, -52, \
-44, -23, -93, -37, -55, 110, -40, -5, -65, -128, 97, 17, 42, 50, 25, 5, 48, 24, -64, 84, 59, 60, 13, 12, 45, -10, -30, 95, -44, 7, 108, -27, -67, -49, 48, 79, -23, -14, 2, -17, -33, 21, 25, -4, 2, 26, 127, 76, -34, 36, -58, -84, -76, -73, 79, -49, -59, 58, -11, 68, 23, -13, -53, -23, 101, 5, -62, 4, -51, -75, -26, 57, 0, -39, -45, -55, 4, -55, -73, 57, 8, -21, -37, -9, -128, -46, 10, 14, -128, 86, 88, -118, -68, -32, -37, 65, -107, -3, -55, 103, 32, 13, 117, -2, 18, 60, -101, 18, -66, 127, 44, -74, 27, -35, -128, -29, -30, -128, 58, -113, -12, -96, 117, -4, -86, -53, 20, -16, 13, -5, -19, -25, -7, 41, 92, 3, 111, -66, -17, 24, -15, -86, -11, -26, -21, -4, 53, 127, 30, -34, -39, 7, 55, -41, -22, -58, 108, 38, 4, -48, 37, -31, -50, -23, 127, -6, 23, -22, -46, -68, 61, -79, -22, -5, -1, -88, -40, 46, -19, 81, -24, 82, -2, 10, -64, 45, -26, 41, 89, 15, 72, 5, -76, -128, -54, 4, 53, 6, -78, -97, -13, -85, 42, -55, 28, -58, -85, -37, 115, 41, -44, -30, -44, -20, -18, -39, 12, 7, 60, 75, -128, -57, 65, 1, 90, 63, -123, 23, -128, -34, -26, 33, -20, -30, 36, -55, 8, 47, -127, 16, 96, -45, 34, -128, -14, -62, -88, -38, -111, 2, -56, -6, 52, 19, 29, -52, -14, 27, 43, 72, 45, -73, -101, -55, -33, 41, -32, -21, 68, 22, 17, -105, 6, -21, 24, 110, 82, -2, -30, -14, -112, 127, -1, -40, -12, 85, -76, -30, \
-37, 68, 127, 71, 80, -40, -93, 35, -47, -17, -4, -44, -54, 66, 34, -107, -38, 61, -40, -128, -40, -8, -122, -63, 83, -106, 113, -110, 20, 12, 38, 22, 88, 4, -15, 20, 58, 5, 16, -42, 2, -52, -88, 96, -39, -2, 32, 49, -45, 10, 92, 43, 52, 42, -17, -6, -10, 34, -51, -74, -128, -24, 100, -40, -89, -38, -26, 90, -12, -10, 38, -3, 43, 16, -31, 56, 56, -128, 20, -31, 79, 104, -74, 127, 127, 90, 120, 40, -111, 107, 127, 74, -116, -52, 22, 42, -20, 65, -103, 20, 2, 2, -128, 21, -37, 20, -6, 118, -3, -39, 90, -84, 66, -30, -55, -30, -3, 36, 8, 2, 78, -90, 77, -38, -128, 127, 6, -58, -35, 42, -32, 47, 51, 36, 75, -120, -43, 72, -108, 80, -29, 31, 37, -41, 16, -12, 30, -17, -62, -72, -41, -2, -6, -87, 67, -45, 20, -127, 6, -56, -16, -33, -53, 41, -93, -96, -98, -83, -59, -83, 28, 24, 14, 72, 64, 64, -77, 83, -67, 87, 127, -72, -54, 27, 127, 52, 6, 60, 17, 26, 37, 48, -20, -35, -53, -66, 41, 28, -6, 25, 76, 12, -65, 67, 32, -73, -13, 59, -27, -47, -97, -17, -24, -18, 30, -22, -11, -71, -15, 52, -86, -100, 82, -57, -26, -38, 65, -87, 33, 17, -25, -81, -88, -74, 84, 9, -49, -83, 34, 52, 22, 60, 43, -128, -23, -127, 55, -37, 20, -75, 38, 103, -6, -35, -92, -31, -36, -88, 17, 48, -24, 26, 103, -43, 127, -106, 62, 24, -68, -53, -32, 62, -45, 116, -37, 9, -91, 31, -29, -93, 53, 9, -108, -128, 38, -57, -128, -28, \
79, 52, 46, -19, -1, 60, -65, 107, -51, 10, -6, 7, 51, -10, -99, -87, -61, -47, -128, 11, 57, 88, 88, 21, -21, 101, -31, -43, 9, -3, 69, 79, -22, -2, -89, -2, 59, -83, 57, -22, 86, 36, 30, 56, -29, -51, -60, 10, 64, -14, 62, 68, -71, 41, -15, -94, 66, -29, 3, -14, 127, -110, -10, 103, 104, 2, 56, 3, 16, -59, -15, -36, -10, -9, -47, -47, 39, -30, 13, -6, -20, -8, -10, 73, 70, -31, -81, 100, -33, 13, 25, -41, -76, -108, 30, 59, 38, -86, -128, -5, 23, 5, 27, 48, -18, 83, 21, -46, 44, -80, -43, -8, 66, 39, 24, 30, 34, 5, -100, -77, 34, 39, 23, 127, 36, 65, 79, 78, 127, 31, -23, 66, -128, -41, -98, -36, -128, -77, 10, -30, -87, -22, 65, -61, 69, -44, 125, 50, -63, 48, -39, -35, 127, 67, 59, -128, 41, -5, 83, -59, 47, 127, -77, 72, -31, 78, 6, 7, 47, -67, -12, -68, 119, -37, -24, -61, -56, -25, 24, 6, -29, -5, 91, 3, -17, -5, -98, -34, 5, -9, -114, -49, 19, 122, 10, 71, -61, 33, 3, 27, -68, 17, 1, 18, 118, 39, 116, -12, -23, 127, 36, -55, 108, -24, -26, -9, -87, 99, -60, -96, 93, 31, -37, 127, 49, -21, 45, -33, 40, 30, -87, 35, 11, 9, -128, 41, 18, -8, -11, -68, 69, -55, 74, 46, -7, -78, -9, -38, -62, 127, 85, -16, -12, 34, 7, 94, 41, 73, 86, 26, 31, 67, -62, -61, -115, -128, 80, -123, -53, -18, 6, 76, -27, 15, -15, 44, 9, 16, 74, -17, -1, 65, 89, -51, -89, 62, 104, 127, \
2, 40, -73, -2, 5, 40, 75, 52, 13, 40, -54, -18, 48, -81, -8, 91, -128, -31, 22, 5, 50, -1, -107, 54, -9, 32, -7, -81, -3, -106, -82, -28, -55, 31, -12, 66, -29, 89, -52, 53, -22, 53, 15, 86, -7, 11, 70, -69, -45, -4, -51, 38, 79, 32, 98, -30, -100, 31, 61, -19, 60, -38, 12, 127, 2, -31, -82, 112, -40, -61, -19, 40, -2, 11, 17, -21, -77, 6, -10, 46, 4, -39, 15, -11, 94, 88, -51, -51, -22, -128, 127, -49, -55, 105, 26, -67, 61, -48, 5, 5, 51, -117, -95, 76, -26, -88, 22, 29, -17, -25, -25, -115, 40, 115, -107, 47, 3, 122, 13, -46, 127, -26, -47, -128, -31, 17, -9, 21, -62, 8, -107, 19, 7, 71, 31, 19, -94, -49, -49, -22, -51, 6, 1, 37, -28, -37, 15, 9, 17, -128, -55, -88, -59, 125, 8, -9, 38, 26, -48, 19, 44, -76, -26, 70, -53, 12, -49, -10, -80, 44, -98, 29, -11, -40, 15, 39, 12, 71, -124, -42, -12, 1, 10, -69, -78, -60, -48, 27, -18, -102, -128, -63, 59, -41, -6, 7, -37, 23, -85, 85, -39, -34, 94, -16, 11, 115, 43, -35, 68, 3, 45, -24, -86, 22, 63, -27, -82, 127, 101, -128, 8, -3, -128, 93, -42, -84, -97, -84, -17, 46, -86, 17, 2, 5, 72, -108, -44, -15, -4, 7, 34, 20, 76, -39, -87, -51, -5, -48, 66, -31, -70, 87, -40, 10, 4, 118, 63, 127, 24, 19, -60, -128, -8, 30, -49, -67, 13, -47, -46, 0, 96, -38, -38, 49, -3, 54, 25, 62, -33, 40, -29, 42, 76, -65, -113, 56, 24, 10, \
23, 86, -46, 34, -120, -17, -128, 13, 30, -64, -14, -82, 127, 127, 16, -44, -94, 0, 82, -84, -74, 127, 21, -75, -36, -20, 53, 54, -119, -62, -21, 79, 38, 5, -30, 35, 62, 54, 43, -67, -4, -82, 29, 39, 69, 26, 6, -73, -128, -91, 57, 54, 61, -75, -2, -7, 8, 38, 48, 44, 17, 38, -76, 65, 70, -50, 43, 39, -52, 18, -19, -33, 22, -77, 55, 89, -43, 28, -15, -128, -7, 40, 87, 62, -33, -33, 127, -28, 13, -62, -8, 51, 27, -92, 42, 0, -46, 52, 15, -9, 25, -46, 65, 113, -21, 3, 23, 36, 98, -34, 33, 62, 30, -49, 59, 61, 12, 86, -39, -40, 40, 12, 89, 57, 75, 15, -48, 3, 15, 21, 64, -58, -19, 12, -19, 8, 127, -58, 1, 10, -58, -51, -55, -13, -36, 81, -109, -113, 55, 58, 127, -25, -82, -62, 68, -10, 49, 22, -2, 26, 56, 21, 20, -86, -42, 113, -3, 82, 13, 30, 2, -127, 44, -83, 43, -98, 28, -70, -95, -12, 23, 8, -54, -99, -26, 50, -46, -9, 14, 5, 9, 41, 53, 63, -52, 10, -115, -91, -12, -93, -18, 19, -61, -128, -25, -32, -30, 45, 85, -92, -53, 66, 3, -17, -124, -19, 42, -27, 45, 18, -105, 4, 18, 24, -84, -3, 3, 4, -80, -67, -24, 9, -45, -47, 76, -70, -53, -17, 13, 95, 41, 62, -41, -5, 1, -24, 121, -35, 26, 90, 1, 44, 44, -113, 127, -5, -8, -62, -41, 18, 30, -50, 122, 67, -1, 99, 28, 36, 108, -15, 24, 23, 30, 46, 77, -54, 19, 127, -31, 11, -126, 45, -63, -85, -1, 18, -39, 40, \
10, 16, 115, 32, 12, 39, -7, 127, 8, -36, -10, 63, -39, -60, 20, 86, 73, -19, 13, 17, -46, -49, -95, -120, 69, -4, -53, 1, -4, -98, -28, 2, 32, -29, 64, -67, -104, -6, 89, -35, -26, -113, -61, 65, -85, 92, 7, -7, 76, -9, -72, -67, 101, -82, -14, -105, 28, 66, -86, 11, 127, -13, -99, -75, -72, -49, 64, -10, 115, -44, -118, 13, -18, 61, -10, 5, -70, -47, -27, -79, 23, -1, -111, 67, 73, -26, -38, 104, 100, 33, -21, -61, 103, -88, 36, -59, 32, 0, -44, 54, 39, 116, -50, -3, 5, 36, -12, -2, -16, -128, -13, 53, -79, -56, 32, -24, 72, 23, 4, -112, -26, 127, 18, -79, 88, -36, -16, -73, 27, -120, 54, -70, -45, -19, 70, 51, -9, 29, 37, 80, -80, -59, -84, -65, 14, -20, 21, 64, -63, 109, -94, 62, 84, -110, -19, 52, -34, 19, -87, -22, 22, 120, -78, -77, -74, 22, -59, 0, 25, -83, 65, 19, -46, -42, -24, 12, -30, 22, -60, 25, 21, 14, 8, 89, -48, 97, -42, 10, 8, -48, 29, 57, 68, -5, -128, 40, -33, -5, -78, -51, 30, -11, 51, -94, 91, 43, 73, 26, -21, -62, 51, 58, 43, -52, -43, 18, -9, 45, 102, 127, -47, 57, -51, -76, -112, 99, 52, -86, -9, -63, 18, -51, 67, 39, -74, 127, -57, -37, 6, 8, 11, -71, -15, -57, 26, 61, -101, 25, 70, -25, 48, 22, 67, -37, 33, -22, -120, -128, 26, -10, 15, 73, 3, 2, 116, 52, -65, -12, -38, -2, -6, -11, -56, -123, -27, -49, 42, -13, -49, 83, 29, -6, 0, -17, -81, 0, 21, 8, \
127, 82, -10, -6, -115, -18, -13, -103, 53, -69, 127, -109, 19, -46, 21, 20, 119, -29, 12, 2, -33, 93, -74, 71, 29, 46, -20, -12, -21, -116, -56, -27, -60, -4, -5, 3, -36, 81, 1, -36, -2, 3, -50, 12, 79, -49, 18, -60, 66, -123, -64, -18, -81, -60, 7, 29, 12, -14, -63, -71, 90, -60, -26, -3, 80, -5, -27, -2, 100, -17, -68, 95, 27, 21, 2, 50, 58, 3, -35, 85, -15, 30, 15, -45, -19, -31, -64, 102, 62, 6, 4, 16, 49, 127, -104, 38, -2, -68, 14, 15, 61, 28, 115, 47, -4, -57, -28, 47, 38, -103, -24, -57, -55, 43, 8, -56, -28, 27, 52, 14, -9, 14, -100, 78, 67, 0, 35, 72, -5, 58, 26, -14, 44, 96, 9, -24, 14, -6, 44, -13, 12, -6, 95, 49, 45, 32, -70, 30, -8, 54, 6, 66, 15, -91, 71, -81, 14, -94, -61, -64, -47, 5, -3, -2, -48, 27, 127, 3, -36, 29, 10, -89, 7, -67, -6, 66, -20, 11, -43, -23, -61, 48, -43, -22, -29, -62, 10, 21, 17, 127, 29, 35, 79, -53, 6, 83, -52, 78, -87, -10, 4, -46, 9, 19, 38, -1, -128, -45, -41, -27, 2, -21, 18, 61, 56, -79, 38, 46, -59, 28, 46, -21, -19, 93, 18, 34, 46, -62, -88, 37, -22, -128, -92, 24, 83, 50, 9, -65, -19, 81, 23, 10, -1, 12, -114, -55, 34, 79, 44, -73, -18, 14, -16, 48, 57, 76, 67, -19, -88, -83, -48, 42, -11, -80, -39, 13, 39, 22, -75, -58, -6, -58, 53, -46, 47, 34, 52, 1, 94, 33, -11, 99, -41, -26, 1, 51, -32, -18, \
-37, -29, 53, -6, -22, -106, 9, -128, 13, 9, -63, -47, -33, -16, 127, -21, -22, 14, -4, -74, 40, -56, -14, -52, 89, -47, -6, -78, -14, 107, 30, -67, 71, 2, 61, -19, -62, -62, 0, 17, 127, 5, 79, -64, -38, 3, -60, 127, 126, -79, -7, 16, 127, -30, -36, -12, -8, -36, -32, 67, 127, -60, -27, 75, -118, 127, 82, 34, -32, 18, -128, 1, 57, 1, 31, -9, 52, -46, 55, 107, 2, 73, -120, 119, 75, -128, -116, 102, -64, -54, 8, 43, -24, -89, 14, -34, -46, 84, 92, -96, -79, -44, -13, 18, -79, -32, 13, -34, -74, -71, -7, -45, 127, 4, 59, -80, 101, 106, -15, 4, -59, -28, -12, 58, 0, 50, -10, -13, -54, -56, 26, -118, -79, 66, 9, -24, -128, 89, 16, -64, -14, -25, -114, -77, 8, 97, 31, -35, 30, -10, 127, -35, -21, -18, 30, -25, -64, -74, -79, -90, 37, -15, 52, 83, 98, 24, -73, -36, 66, -57, -21, 96, 25, 9, 104, -7, -107, 6, -25, 89, -10, -1, -46, -67, 51, 50, -66, 66, 55, -53, 41, 41, -35, -128, 60, 62, 1, -59, -19, 3, -52, 24, 36, -66, -81, 26, -71, 77, 6, 8, 21, -51, 17, 95, 126, -51, -12, -5, 52, -128, 61, 8, -46, 40, -40, 127, -32, 7, -56, -26, 24, -16, 21, -2, 102, 0, -17, 0, 30, 19, -30, 84, -80, 39, -94, 83, -43, 127, -13, -55, 2, 18, -72, -60, 3, 127, -20, -42, 102, 21, -14, 49, 84, 97, -12, 4, 34, -13, -35, -115, -33, 21, 10, -60, -36, 35, 78, -70, -33, -24, 72, -46, -34, -96, 58, 4, 48, -128, \
83, -85, -4, 70, -15, 43, 22, 15, -47, 80, -39, -52, 69, 8, 72, 54, -48, -28, -66, 57, -49, -41, 105, 109, 1, 80, -26, 37, 68, 78, -23, 23, 64, 37, -41, 46, -125, -100, -40, -10, 2, -61, -96, 29, -71, -66, -24, -96, 43, 21, 53, 37, -28, 77, 66, -42, 16, -60, 45, 19, 96, 127, -26, 122, 37, -34, 10, 34, -95, 60, -54, 85, 104, -18, -72, 65, 52, -20, 10, 127, -20, 17, 55, -114, -26, 110, 42, -10, -76, -8, 40, 0, 62, -41, -77, 40, -6, 33, -84, 59, -30, -89, 29, -20, -38, -96, -83, -14, -5, 56, -35, 34, -39, -11, 54, -32, -94, 127, 14, -20, 94, 59, 41, 127, 27, 99, -49, 37, 57, -5, 80, -7, 69, 20, -51, -18, 22, 127, -67, 2, 78, 76, 90, -53, 127, 30, 3, 27, -116, -15, -63, 47, -61, -82, 17, -11, -13, 15, -31, 17, 88, -64, -73, -58, -30, -62, -121, 81, -17, -17, 9, -42, 19, -6, -99, 37, 12, -128, -30, 7, -5, 16, -27, 22, -46, -13, 42, 15, 74, -11, -27, 65, 25, -53, 11, -36, -45, 13, 70, 1, -81, 48, -45, -128, 62, 16, -32, 3, 98, 101, -56, 32, -62, -4, 91, 105, -37, -41, 68, 10, 1, -45, -26, -86, -77, -49, -128, -32, 77, -128, -46, -4, 71, 30, -14, -47, -128, 56, 36, 64, 59, -98, -76, 68, -89, 63, -98, 99, 35, 30, -52, 34, -27, 39, 12, -28, -122, 1, 88, -22, 22, 9, -27, -5, 123, -65, 91, 25, -32, -42, -85, 86, -41, -91, 99, -123, -88, -8, 90, 18, -25, -105, -68, -1, 13, 21, 9, 64, \
-26, -15, -128, -64, -6, -30, -128, -51, 48, 26, -48, 79, 58, -66, -60, 103, 14, -21, -100, -3, -1, -88, -10, -20, -66, 125, -32, -20, 17, 66, -30, 127, 36, 35, -26, 58, 24, -40, -29, -54, 8, -28, 33, -57, 114, -128, 24, 12, -15, 45, 35, -33, 67, -11, 3, 116, -90, 66, -58, -3, -72, -28, 70, 19, -17, 7, 19, 127, 54, 5, 54, 105, 103, 111, 13, -13, 15, 84, -27, -86, 78, 6, 72, 21, 46, -29, -36, 67, -8, -3, 66, 33, -70, -74, -128, 125, -42, -37, 127, 44, 119, 89, 30, -19, 98, 94, -28, 76, -11, -115, -13, 127, -10, -56, -55, -61, 92, 47, -7, 65, -67, 127, -9, 100, -59, -67, -45, 25, 55, 25, -52, -1, -16, 20, 20, -34, 80, 61, 23, -61, -10, -43, 55, -71, -32, -57, 82, -105, 111, 20, -64, -80, 22, -93, -70, -32, -88, 127, 4, 8, 63, -59, -77, 127, 56, -30, -61, 46, -57, -92, 47, 33, -10, 94, 81, 31, -46, -8, -18, 36, 51, -46, -19, 15, -35, 2, -47, 53, -38, -54, -82, -11, 57, 54, -77, -64, -25, -80, 26, -107, -4, 39, 23, 90, -101, -31, 51, 27, 45, -60, -28, -20, 95, -73, -112, -27, -30, -71, 127, 127, 36, -21, 40, 69, -12, 30, -62, -15, 2, -60, -10, 12, -40, 10, -48, -24, 80, -42, 27, 21, 32, -7, -13, 91, 42, 88, -85, 38, -28, 54, -22, 42, 3, -16, 1, -5, 69, 32, 32, -41, 104, 23, 51, -111, -21, 84, 123, -36, -66, 71, 127, 114, -26, 13, 106, 66, -33, 127, 127, 10, -66, -2, 125, 45, -128, 40, -18, -73}


#define IN_INT8_DATA {76, 161, 74, 214, 74, 210, 179, 171, 58, 163, 158, 122, 161, 43, 103, 146, 207, 181, 133, 255, 172, 80, 212, 72, 111, 99, 112, 0, 191, 159, 214, 131, 92, 3, 140, 241, 255, 124, 129, 93, 232, 165, 77, 111, 161, 171, 119, 107, 154, 255, 58, 203, 118, 52, 199, 201, 95, 247, 185, 213, 91, 72, 33, 139, 75, 84, 75, 153, 159, 143, 43, 120, 233, 56, 59, 0, 175, 154, 141, 69, 201, 200, 96, 6, 197, 130, 152, 86, 158, 145, 0, 116, 98, 115, 147, 112, 45, 181, 0, 108, 194, 255, 125, 124, 105, 95, 165, 200, 143, 175, 28, 218, 147, 134, 101, 184, 138, 56, 255, 255, 69, 162, 112, 77, 196, 122, 200, 183, 115, 205, 83, 74, 180, 83, 148, 9, 162, 219, 180, 57, 94, 141, 174, 122, 0, 255, 192, 223, 81, 80, 107, 172, 73, 85, 179, 140, 110, 178, 201, 127, 66, 103, 236, 32, 108, 166, 106, 218, 95, 0, 116, 184, 85, 109, 96, 236, 77, 165, 0, 143, 66, 89, 255, 246, 154, 183, 143, 128, 180, 171, 111, 104, 95, 226, 105, 83, 217, 160, 124, 84, 135, 249, 120, 131, 162, 95, 60, 156, 165, 94, 117, 126, 182, 38, 54, 136, 110, 149, 144, 170, 132, 235, 122, 79, 255, 132, 191, 66, 153, 131, 5, 104, 163, 53, 58, 82, 119, 110, 190, 170, 155, 66, 86, 112, 144, 51, 190, 175, 130, 114, 110, 127, 75, 127, 161, 38, 80, 140, 153, 227, 148, 69, 164, 206, 187, 46, 122, 147, 41, 121, 0, 158, 22, 129, 124, 185, 24, 118, 79, 109, 127, 0, 28, 217, 99, 2, 61, 109, 192, 44, 184, 136, 255, 156, 66, 179, 172, 136, 56, 156, 104, 157, 129, 123, 151, 150, 136, 77, 16, 106, 232, 164, 157, 34, 211, 102, 154, 235, 152, 104, 112, 74, 246, 179, 61, 18, 124, 83, 93, 88, 195, 206, 136, 112, 93, 216, 148, 158, 230, 220, 82, 234, 70, 137, 246, 46, 177, 101, 213, 73, 98, 147, 158, 64, 111, 100, 215, 187, 199, 130, 98, 113, 140, 51, 117, 80, 137, 192, 100, 237, 189, 168, 62, 121, 57, 135, 157, 173, 192, 143, 109, 71, 192, 68, 85, 178, 148, 99, 116, 59, 141, 62, 14, 147, 95, 210, 137, 157, 132, 186, 0, 149, 22, 225, 113, 27, 169, 6, 211, 62, 115, 95, 177, 131, 46, 165, 105, 147, 146, 56, 61, 35, 73, 107, 209, 96, 105, 0, 185, 182, 236, 151, 175, 250, 199, 183, 156, 82, 110, 131, 136, 137, 99, 101, 113, 176, 106, 215, 35, 48, 120, 196, 124, 62, 101, 219, 225, 156, 82, 216, 227, 177, 114, 102, 56, 164, 114, 33, 91, 57, 182, 62, 103, 62, 183, 156, 185, 234, 130, 198, 112, 89, 192, 213, 255, 155, 128, 103, 132, 255, 119, 149, 114, 126, 125, 60, 71, 133, 151, 168, 255, 121, 126, 147, 183, 103, 137, 145, 116, 60, 51, 238, \
181, 119, 146, 94, 80, 123, 177, 131, 63, 59, 156, 63, 82, 89, 30, 229, 99, 0, 255, 111, 194, 182, 109, 139, 146, 123, 174, 154, 247, 172, 167, 9, 200, 182, 8, 86, 96, 84, 239, 111, 167, 43, 57, 115, 125, 202, 182, 246, 193, 198, 44, 54, 164, 135, 89, 148, 33, 147, 213, 48, 91, 118, 39, 201, 192, 97, 196, 77, 147, 161, 176, 96, 53, 105, 166, 167, 142, 92, 168, 101, 170, 165, 42, 186, 142, 94, 230, 48, 128, 116, 50, 89, 117, 25, 129, 100, 199, 160, 128, 88, 185, 187, 124, 182, 53, 110, 147, 111, 96, 86, 149, 142, 206, 183, 195, 201, 185, 61, 129, 97, 129, 187, 17, 235, 171, 85, 186, 176, 197, 134, 137, 34, 123, 72, 174, 99, 123, 241, 0, 118, 129, 56, 37, 82, 82, 217, 0, 82, 119, 227, 61, 100, 146, 136, 82, 39, 159, 245, 82, 132, 124, 113, 15, 154, 57, 124, 174, 139, 124, 0, 144, 178, 118, 156, 172, 255, 218, 226, 222, 141, 206, 31, 102, 200, 110, 77, 102, 198, 123, 90, 45, 135, 136, 80, 67, 151, 174, 93, 156, 52, 156, 140, 122, 114, 149, 239, 69, 255, 191, 75, 8, 185, 55, 188, 231, 173, 17, 117, 154, 96, 231, 139, 191, 189, 139, 163, 146, 59, 175, 109, 9, 45, 112, 93, 90, 197, 163, 187, 135, 136, 66, 20, 193, 113, 2, 131, 115, 170, 241, 199, 167, 120, 174, 255, 124, 87, 132, 102, 86, 255, 61, 100, 255, 225, 95, 242, 128, 195, 111, 101, 50, 176, 120, 32, 171, 67, 211, 229, 62, 105, 169, 155, 94, 130, 29, 183, 73, 142, 144, 79, 179, 158, 195, 133, 135, 188, 207, 125, 102, 131, 117, 195, 72, 181, 134, 156, 108, 212, 177, 207, 255, 96, 89, 163, 0, 210, 138, 149, 125, 200, 189, 51, 103, 238, 192, 13, 72, 96, 97, 104, 117, 147, 139, 53, 50, 227, 203, 77, 120, 180, 61, 98, 9, 137, 97, 103, 193, 73, 255, 122, 0, 67, 151, 150, 124, 139, 32, 133, 131, 228, 177, 43, 125, 154, 142, 31, 101, 112, 75, 49, 255, 87, 148, 30, 79, 110, 175, 84, 184, 52, 170, 120, 227, 151, 142, 13, 0, 108, 165, 125, 173, 105, 101, 255, 128, 95, 119, 107, 0, 107, 156, 58, 167, 247, 120, 149, 162, 140, 221, 138, 57, 129, 156, 93, 21, 81, 106, 50, 127, 170, 167, 205, 232, 255, 123, 168, 89, 255, 183, 35, 110, 223, 224, 192, 77, 109, 7, 227, 109, 129, 97, 19, 124, 110, 77, 32, 56, 183, 105, 94, 244, 73, 167, 64, 124, 136, 92, 106, 0, 198, 139, 118, 73, 136, 169, 113, 211, 113, 16, 49, 171, 87, 102, 255, 2, 122, 11, 204, 121, 75, 111, 229, 179, 154, 159, 152, 196, 71, 127, 167, 106, 97, 214, 71, 92, 59, 73, 171, 108, 193, 129, 240, 153, 180, 46, 155, 200, 129, 175, 69, 82, 130, \
213, 75, 132, 56, 223, 123, 133, 202, 76, 112, 39, 95, 128, 198, 111, 79, 147, 188, 134, 152, 128, 108, 19, 141, 50, 51, 99, 127, 140, 75, 97, 161, 205, 44, 103, 29, 243, 211, 86, 80, 165, 190, 162, 60, 194, 81, 44, 82, 17, 187, 118, 73, 32, 131, 114, 111, 120, 219, 171, 58, 86, 167, 153, 145, 47, 143, 148, 40, 94, 108, 222, 55, 102, 76, 71, 0, 218, 172, 156, 199, 143, 41, 118, 115, 187, 154, 172, 86, 237, 225, 53, 218, 163, 255, 175, 54, 100, 171, 162, 82, 66, 180, 130, 112, 32, 0, 120, 6, 187, 103, 160, 161, 137, 77, 189, 49, 109, 47, 95, 61, 105, 227, 90, 170, 36, 183, 182, 223, 0, 114, 107, 56, 185, 57, 248, 110, 65, 137, 158, 177, 111, 139, 81, 83, 151, 198, 123, 0, 183, 200, 203, 127, 68, 110, 153, 83, 117, 171, 202, 3, 57, 177, 100, 24, 187, 190, 123, 78, 84, 183, 204, 96, 205, 171, 111, 169, 91, 250, 94, 177, 175, 178, 139, 132, 137, 90, 53, 167, 100, 160, 56, 79, 0, 35, 98, 135, 200, 157, 109, 135, 170, 145, 79, 167, 167, 135, 184, 226, 142, 59, 221, 120, 76, 94, 56, 90, 146, 94, 38, 198, 170, 186, 199, 157, 130, 92, 136, 143, 67, 52, 137, 235, 123, 214, 200, 173, 74, 168, 36, 51, 124, 184, 157, 152, 61, 114, 128, 68, 116, 122, 19, 137, 226, 92, 88, 166, 59, 67, 183, 175, 82, 234, 106, 96, 102, 109, 63, 54, 53, 74, 144, 58, 148, 52, 208, 173, 31, 141, 212, 194, 0, 78, 168, 159, 113, 150, 159, 10, 71, 0, 183, 150, 77, 133, 59, 48, 224, 193, 180, 243, 165, 242, 255, 103, 138, 11, 56, 185, 112, 57, 82, 116, 225, 68, 124, 247, 44, 131, 89, 169, 190, 58, 209, 15, 83, 96, 148, 134, 230, 168, 114, 68, 172, 170, 15, 199, 126, 193, 105, 159, 136, 42, 124, 0, 124, 178, 101, 223, 202, 137, 120, 99, 164, 108, 154, 88, 139, 124, 106, 144, 67, 166, 17, 168, 83, 153, 0, 43, 80, 215, 243, 22, 146, 43, 168, 234, 109, 96, 131, 171, 69, 209, 106, 74, 57, 125, 162, 228, 138, 0, 9, 234, 133, 161, 149, 85, 255, 104, 243, 0, 98, 102, 236, 67, 149, 81, 144, 226, 163, 100, 100, 255, 234, 204, 255, 224, 138, 186, 105, 189, 47, 58, 109, 111, 92, 55, 110, 141, 249, 112, 125, 189, 143, 199, 203, 139, 57, 173, 47, 93, 188, 116, 206, 59, 195, 255, 43, 118, 58, 99, 164, 10, 186, 188, 85, 154, 139, 94, 111, 90, 53, 151, 171, 145, 43, 22, 113, 232, 147, 52, 204, 51, 232, 161, 105, 204, 188, 63, 248, 115, 35, 196, 115, 231, 91, 43, 162, 57, 34, 58, 52, 84, 78, 106, 215, 138, 126, 223, 208, 16, 133, 137, 138, 170, 160, 146, 103, 67, 22, 73, 97, 191, \
97, 75, 111, 98, 145, 198, 195, 212, 186, 98, 91, 187, 101, 76, 132, 42, 97, 184, 113, 90, 165, 159, 76, 162, 105, 96, 0, 127, 142, 239, 84, 81, 59, 186, 106, 133, 160, 58, 91, 92, 149, 128, 217, 164, 74, 183, 173, 72, 119, 224, 0, 226, 181, 109, 183, 126, 118, 172, 242, 121, 165, 124, 138, 93, 148, 195, 68, 138, 223, 117, 179, 66, 255, 130, 145, 255, 206, 33, 126, 140, 219, 95, 102, 116, 188, 80, 91, 0, 38, 0, 97, 217, 74, 123, 124, 239, 255, 201, 119, 145, 130, 217, 94, 100, 223, 128, 31, 113, 245, 121, 163, 100, 145, 84, 161, 91, 145, 138, 128, 18, 155, 197, 170, 60, 135, 90, 81, 86, 152, 123, 89, 174, 64, 79, 255, 92, 84, 132, 255, 162, 137, 172, 131, 154, 108, 61, 91, 165, 153, 160, 182, 73, 99, 75, 101, 142, 203, 146, 128, 122, 214, 72, 150, 4, 145, 53, 22, 83, 59, 106, 153, 178, 215, 105, 14, 156, 43, 187, 49, 134, 148, 96, 142, 143, 81, 180, 154, 216, 40, 78, 129, 5, 69, 56, 239, 155, 178, 209, 84, 146, 195, 112, 188, 150, 50, 109, 51, 122, 99, 182, 107, 45, 157, 112, 143, 35, 127, 37, 55, 255, 149, 205, 114, 147, 66, 176, 151, 146, 184, 114, 90, 187, 152, 154, 92, 156, 0, 64, 219, 112, 255, 84, 82, 148, 0, 75, 255, 83, 104, 183, 159, 209, 143, 78, 194, 55, 128, 29, 157, 0, 116, 110, 186, 85, 190, 3, 182, 209, 98, 79, 181, 16, 99, 110, 46, 116, 187, 123, 249, 165, 185, 91, 176, 161, 47, 85, 22, 184, 151, 51, 158, 205, 32, 120, 68, 108, 127, 61, 75, 83, 139, 75, 131, 97, 255, 52, 71, 199, 99, 125, 58, 180, 194, 155, 43, 105, 139, 182, 153, 97, 105, 59, 168, 255, 86, 48, 47, 219, 80, 123, 131, 135, 119, 121, 78, 183, 135, 132, 199, 48, 83, 228, 73, 70, 195, 34, 240, 164, 190, 254, 125, 157, 79, 201, 47, 119, 92, 195, 60, 176, 255, 237, 58, 137, 70, 94, 192, 63, 192, 117, 204, 214, 82, 34, 155, 81, 119, 114, 121, 143, 11, 95, 76, 116, 156, 105, 0, 79, 62, 193, 171, 227, 177, 104, 158, 154, 124, 123, 208, 150, 188, 136, 68, 129, 128, 103, 92, 136, 167, 156, 254, 92, 179, 135, 157, 236, 138, 135, 96, 55, 72, 177, 81, 209, 115, 255, 208, 160, 130, 183, 186, 136, 186, 61, 168, 98, 148, 55, 164, 96, 3, 155, 132, 69, 69, 76, 61, 145, 112, 34, 171, 107, 65, 139, 66, 236, 42, 111, 150, 228, 147, 200, 100, 9, 132, 151, 226, 182, 193, 139, 196, 244, 56, 131, 209, 190, 137, 174, 191, 199, 34, 113, 167, 191, 140, 121, 86, 213, 207, 109, 13, 38, 155, 77, 163, 165, 86, 80, 229, 118, 230, 209, 154, 79, 155, 0, 192, 161, 59, 84, 171, 7, \
166, 86, 237, 148, 224, 74, 171, 36, 40, 119, 232, 106, 73, 131, 112, 146, 128, 92, 170, 89, 111, 209, 78, 108, 0, 0, 115, 127, 122, 169, 133, 103, 54, 126, 85, 30, 77, 187, 117, 197, 188, 136, 150, 119, 174, 71, 85, 162, 185, 32, 122, 216, 207, 64, 114, 125, 191, 134, 202, 175, 190, 122, 142, 118, 192, 84, 72, 25, 93, 52, 78, 171, 161, 161, 201, 21, 10, 86, 168, 0, 123, 116, 28, 124, 176, 242, 76, 78, 50, 120, 108, 51, 77, 146, 58, 152, 91, 151, 76, 78, 47, 201, 161, 0, 28, 69, 136, 83, 163, 157, 114, 144, 159, 150, 198, 250, 160, 101, 49, 127, 179, 53, 143, 150, 31, 134, 255, 92, 165, 21, 166, 60, 105, 28, 85, 207, 83, 130, 109, 206, 75, 82, 148, 141, 122, 94, 73, 56, 153, 192, 114, 99, 199, 2, 15, 169, 96, 90, 24, 93, 41, 153, 196, 203, 84, 110, 66, 10, 9, 168, 137, 75, 66, 118, 252, 104, 44, 99, 186, 183, 44, 129, 68, 148, 94, 82, 255, 69, 220, 48, 188, 144, 43, 255, 30, 99, 106, 113, 162, 114, 62, 166, 154, 144, 146, 148, 101, 134, 177, 97, 215, 122, 174, 154, 179, 138, 149, 120, 255, 104, 190, 77, 122, 37, 137, 164, 99, 97, 164, 89, 167, 173, 171, 207, 39, 161, 115, 128, 255, 133, 102, 88, 109, 52, 175, 109, 22, 167, 217, 80, 236, 154, 224, 204, 184, 142, 208, 30, 108, 139, 182, 98, 161, 33, 109, 58, 144, 139, 91, 217, 112, 169, 199, 131, 87, 57, 157, 85, 142, 96, 102, 0, 180, 89, 141, 61, 129, 154, 0, 117, 106, 98, 138, 60, 136, 165, 255, 40, 120, 85, 7, 0, 95, 222, 0, 168, 79, 160, 248, 80, 62, 132, 34, 102, 94, 146, 159, 207, 168, 102, 208, 51, 121, 102, 160, 109, 193, 0, 203, 147, 94, 134, 193, 152, 173, 74, 0, 49, 54, 54, 255, 156, 173, 126, 177, 103, 0, 132, 55, 117, 91, 77, 163, 124, 255, 111, 64, 120, 24, 13, 173, 134, 255, 72, 130, 207, 120, 130, 44, 88, 154, 115, 116, 46, 131, 144, 88, 87, 118, 103, 142, 123, 0, 159, 129, 61, 95, 82, 147, 172, 209, 233, 135, 79, 104, 123, 47, 97, 48, 61, 9, 201, 154, 53, 37, 15, 136, 234, 162, 132, 128, 0, 31, 249, 0, 163, 27, 133, 61, 158, 170, 90, 230, 125, 141, 233, 50, 216, 106, 39, 77, 193, 53, 151, 110, 106, 174, 167, 78, 181, 253, 151, 62, 126, 91, 72, 172, 178, 255, 163, 139, 138, 184, 209, 83, 79, 88, 194, 127, 36, 172, 197, 9, 18, 122, 121, 110, 229, 182, 37, 152, 177, 147, 164, 94, 158, 119, 148, 123, 41, 177, 128, 233, 115, 0, 84, 22, 75, 94, 100, 168, 48, 194, 226, 253, 188, 180, 200, 117, 208, 210, 142, 82, 212, 68, 141, 199, 200, 145, 141, 70, 108, \
168, 55, 230, 182, 116, 168, 26, 0, 119, 116, 146, 101, 123, 205, 44, 106, 105, 142, 66, 8, 78, 0, 213, 160, 49, 168, 68, 245, 0, 110, 161, 149, 109, 176, 158, 134, 52, 184, 48, 154, 207, 184, 158, 112, 63, 255, 147, 161, 86, 96, 183, 162, 52, 154, 106, 130, 117, 186, 187, 191, 121, 186, 255, 186, 167, 185, 97, 120, 207, 238, 136, 73, 175, 84, 123, 148, 250, 135, 162, 239, 131, 186, 74, 75, 141, 27, 104, 56, 110, 66, 16, 154, 234, 189, 170, 132, 206, 70, 199, 16, 111, 86, 222, 31, 143, 46, 156, 119, 125, 123, 119, 58, 147, 79, 69, 193, 132, 124, 152, 16, 147, 79, 142, 64, 226, 106, 100, 98, 143, 85, 60, 191, 158, 132, 76, 87, 102, 186, 252, 24, 193, 15, 189, 187, 118, 84, 158, 73, 81, 133, 121, 155, 93, 60, 154, 211, 81, 96, 74, 174, 100, 218, 205, 0, 88, 70, 58, 191, 65, 56, 141, 131, 209, 222, 0, 57, 49, 180, 255, 142, 208, 174, 74, 57, 52, 108, 26, 247, 177, 150, 139, 203, 114, 89, 135, 161, 106, 172, 134, 61, 203, 203, 194, 138, 162, 65, 44, 196, 255, 223, 150, 255, 176, 134, 74, 153, 85, 141, 97, 205, 123, 104, 82, 218, 18, 171, 41, 103, 214, 169, 66, 214, 125, 132, 121, 183, 146, 221, 130, 120, 225, 96, 223, 140, 129, 50, 249, 123, 185, 187, 201, 55, 145, 188, 172, 143, 134, 174, 197, 60, 92, 151, 88, 118, 172, 151, 141, 169, 161, 114, 116, 212, 174, 245, 141, 35, 86, 193, 140, 156, 151, 97, 189, 183, 32, 155, 187, 11, 182, 85, 119, 175, 218, 90, 82, 61, 69, 217, 140, 197, 109, 0, 229, 133, 65, 107, 116, 102, 217, 199, 128, 79, 117, 173, 105, 126, 194, 106, 146, 201, 225, 110, 153, 150, 46, 174, 245, 86, 189, 176, 82, 141, 87, 174, 131, 64, 199, 138, 80, 180, 75, 129, 99, 89, 156, 31, 81, 39, 104, 169, 136, 251, 119, 55, 112, 133, 66, 129, 183, 32, 187, 170, 38, 86, 179, 104, 255, 207, 187, 40, 25, 93, 182, 255, 209, 204, 134, 142, 120, 130, 202, 183, 188, 132, 0, 83, 96, 91, 0, 232, 70, 164, 137, 205, 151, 54, 83, 255, 150, 79, 19, 10, 33, 35, 53, 137, 62, 90, 38, 180, 73, 204, 105, 115, 117, 139, 177, 153, 205, 207, 15, 142, 255, 113, 158, 64, 115, 137, 156, 89, 146, 131, 52, 125, 203, 159, 136, 234, 191, 124, 21, 0, 123, 216, 205, 207, 96, 61, 186, 150, 91, 200, 47, 151, 231, 128, 255, 164, 144, 94, 126, 123, 0, 184, 53, 150, 0, 7, 187, 93, 118, 33, 164, 123, 158, 102, 236, 103, 122, 153, 0, 225, 185, 255, 0, 194, 37, 134, 63, 177, 4, 206, 179, 251, 131, 107, 106, 181, 168, 27, 128, 51, 135, 148, 116, 163, 191, 241, 225, 151, 131, 123, \
145, 155, 31, 203, 255, 168, 7, 213, 9, 170, 238, 74, 182, 52, 197, 63, 172, 145, 136, 160, 121, 245, 126, 76, 127, 161, 135, 116, 34, 126, 87, 136, 135, 221, 167, 176, 218, 125, 0, 21, 152, 86, 191, 159, 77, 191, 141, 75, 114, 155, 113, 152, 164, 173, 55, 95, 119, 189, 177, 53, 15, 143, 87, 100, 112, 140, 126, 149, 161, 144, 177, 158, 129, 255, 188, 195, 36, 147, 96, 169, 179, 113, 92, 186, 196, 105, 61, 140, 135, 53, 198, 255, 16, 34, 129, 216, 118, 189, 152, 71, 117, 147, 158, 144, 49, 177, 120, 85, 32, 129, 31, 184, 129, 125, 198, 142, 13, 228, 174, 138, 79, 54, 0, 151, 84, 118, 116, 219, 91, 129, 96, 132, 103, 166, 96, 209, 37, 228, 177, 90, 167, 75, 92, 46, 124, 165, 57, 184, 255, 103, 106, 84, 82, 119, 76, 81, 64, 50, 148, 176, 24, 152, 215, 145, 134, 0, 122, 60, 40, 157, 175, 213, 150, 228, 213, 71, 68, 76, 243, 189, 186, 177, 0, 110, 187, 61, 145, 152, 199, 39, 112, 81, 110, 127, 173, 77, 36, 158, 210, 176, 102, 202, 122, 65, 193, 115, 122, 63, 160, 81, 72, 246, 5, 123, 122, 152, 175, 16, 95, 163, 189, 105, 80, 197, 104, 78, 155, 255, 222, 194, 142, 153, 153, 86, 147, 187, 95, 106, 123, 177, 21, 89, 119, 84, 206, 189, 114, 78, 196, 132, 144, 89, 66, 123, 136, 168, 183, 111, 212, 146, 0, 106, 36, 131, 200, 153, 89, 117, 171, 93, 107, 196, 174, 188, 191, 94, 26, 237, 118, 205, 205, 122, 101, 60, 255, 117, 170, 53, 35, 62, 0, 171, 7, 218, 93, 119, 184, 123, 217, 208, 225, 208, 65, 173, 48, 206, 65, 18, 119, 77, 125, 135, 130, 82, 249, 135, 131, 123, 135, 121, 83, 148, 205, 225, 212, 43, 109, 188, 227, 206, 215, 154, 222, 247, 144, 4, 92, 102, 141, 115, 116, 30, 178, 189, 100, 177, 229, 110, 228, 217, 177, 235, 87, 139, 85, 201, 84, 179, 33, 121, 167, 126, 235, 1, 127, 159, 187, 38, 152, 107, 226, 121, 40, 214, 130, 197, 106, 72, 138, 71, 139, 74, 141, 148, 192, 65, 146, 89, 120, 37, 14, 133, 140, 80, 126, 200, 135, 104, 0, 198, 126, 72, 173, 61, 141, 143, 154, 144, 187, 56, 65, 185, 152, 131, 149, 123, 175, 179, 53, 102, 145, 152, 121, 1, 58, 178, 189, 92, 0, 130, 150, 72, 225, 169, 131, 162, 249, 56, 126, 121, 247, 125, 216, 154, 18, 153, 8, 51, 0, 68, 80, 166, 54, 170, 29, 208, 56, 187, 203, 173, 69, 147, 143, 138, 158, 37, 86, 255, 25, 121, 153, 24, 164, 184, 41, 216, 174, 161, 147, 115, 43, 94, 91, 85, 149, 90, 174, 44, 196, 95, 63, 194, 109, 103, 209, 43, 247, 126, 91, 187, 246, 98, 111, 73, 197, 123, 116, 132, 118, 91, 142, 209, \
236, 167, 153, 179, 193, 103, 53, 133, 157, 15, 210, 17, 53, 149, 155, 21, 106, 116, 149, 140, 209, 151, 88, 129, 118, 138, 140, 185, 54, 106, 150, 80, 108, 211, 67, 62, 0, 198, 120, 152, 45, 173, 79, 8, 168, 140, 128, 139, 63, 65, 155, 41, 153, 45, 148, 107, 91, 255, 59, 106, 70, 91, 33, 157, 211, 118, 56, 77, 145, 85, 201, 255, 122, 251, 96, 155, 160, 156, 0, 117, 177, 171, 110, 98, 234, 74, 176, 136, 118, 125, 201, 217, 162, 130, 98, 91, 106, 146, 127, 73, 130, 42, 169, 30, 206, 80, 61, 126, 124, 245, 109, 143, 115, 143, 72, 132, 128, 182, 204, 136, 58, 41, 255, 62, 107, 110, 214, 83, 170, 143, 63, 168, 148, 142, 190, 33, 224, 174, 113, 88, 119, 138, 255, 126, 78, 24, 28, 79, 192, 168, 126, 224, 115, 14, 127, 72, 122, 1, 181, 134, 95, 232, 92, 131, 209, 255, 217, 217, 114, 182, 221, 171, 237, 126, 22, 127, 100, 62, 190, 131, 89, 194, 99, 191, 12, 227, 44, 87, 153, 95, 135, 35, 178, 126, 140, 177, 160, 44, 0, 67, 108, 212, 194, 141, 146, 107, 110, 54, 97, 182, 91, 56, 145, 201, 202, 125, 92, 88, 166, 131, 138, 255, 131, 49, 37, 80, 132, 129, 146, 120, 147, 145, 134, 34, 99, 121, 32, 80, 167, 131, 41, 191, 71, 52, 215, 137, 64, 160, 205, 54, 217, 233, 127, 231, 188, 138, 75, 93, 123, 176, 103, 237, 138, 171, 49, 143, 226, 109, 229, 102, 104, 164, 198, 135, 110, 194, 169, 146, 102, 135, 132, 80, 111, 165, 148, 12, 203, 143, 90, 108, 186, 255, 183, 124, 107, 46, 75, 168, 151, 1, 232, 0, 189, 206, 231, 163, 54, 208, 84, 116, 181, 183, 103, 147, 209, 230, 0, 120, 36, 88, 211, 96, 63, 146, 208, 96, 114, 159, 113, 196, 185, 161, 107, 112, 79, 57, 86, 136, 154, 121, 153, 132, 217, 85, 114, 17, 0, 150, 175, 50, 133, 173, 178, 210, 93, 120, 182, 115, 59, 96, 192, 82, 36, 170, 165, 45, 130, 231, 114, 227, 76, 252, 141, 227, 35, 71, 0, 228, 244, 190, 142, 160, 171, 73, 67, 255, 189, 167, 253, 60, 46, 124, 140, 95, 141, 212, 138, 132, 255, 2, 0, 213, 122, 53, 133, 131, 104, 173, 133, 209, 0, 170, 111, 149, 186, 207, 166, 223, 69, 163, 177, 108, 79, 255, 143, 36, 106, 98, 121, 77, 255, 143, 121, 119, 162, 140, 146, 181, 237, 141, 0, 160, 197, 244, 118, 174, 145, 39, 160, 231, 227, 126, 113, 124, 131, 168, 169, 183, 189, 255, 175, 90, 84, 124, 124, 160, 104, 255, 182, 169, 45, 212, 146, 187, 142, 183, 137, 175, 0, 37, 47, 136, 161, 86, 190, 182, 122, 155, 231, 109, 255, 0, 123, 0, 46, 39, 116, 106, 88, 60, 36, 89, 94, 62, 113, 74, 227, 143, 113, 114, 125, 105, \
117, 197, 134, 164, 68, 159, 174, 181, 255, 42, 120, 177, 77, 95, 151, 126, 246, 122, 227, 175, 55, 82, 118, 255, 255, 255, 162, 130, 153, 186, 198, 127, 200, 36, 227, 146, 59, 4, 52, 124, 120, 168, 48, 61, 181, 6, 151, 116, 244, 129, 40, 206, 136, 129, 129, 169, 0, 134, 171, 110, 104, 158, 115, 110, 183, 105, 111, 122, 179, 111, 120, 59, 130, 84, 146, 148, 47, 87, 56, 142, 147, 10, 10, 180, 83, 34, 148, 128, 247, 153, 138, 134, 196, 76, 91, 222, 203, 123, 157, 125, 238, 129, 63, 93, 174, 24, 239, 85, 93, 174, 191, 110, 96, 91, 140, 127, 65, 140, 221, 74, 87, 71, 132, 204, 126, 132, 209, 175, 136, 241, 69, 129, 111, 98, 230, 90, 118, 123, 70, 205, 58, 167, 147, 121, 172, 145, 206, 127, 129, 118, 175, 190, 108, 126, 101, 49, 255, 166, 85, 103, 195, 121, 177, 0, 193, 212, 158, 169, 212, 178, 161, 106, 251, 192, 119, 57, 75, 109, 203, 167, 122, 109, 225, 199, 74, 204, 34, 0, 54, 147, 186, 89, 168, 168, 137, 132, 0, 112, 169, 167, 192, 96, 149, 110, 238, 133, 104, 150, 237, 100, 35, 187, 75, 109, 84, 224, 96, 0, 121, 110, 71, 88, 142, 143, 167, 135, 206, 115, 157, 47, 206, 162, 98, 107, 136, 223, 186, 145, 174, 133, 156, 224, 140, 233, 52, 179, 0, 112, 147, 110, 229, 150, 231, 247, 38, 155, 109, 50, 117, 89, 146, 126, 255, 120, 174, 134, 119, 115, 142, 143, 156, 150, 131, 168, 51, 120, 200, 1, 184, 0, 100, 234, 238, 124, 191, 229, 55, 124, 105, 82, 117, 102, 149, 75, 106, 94, 74, 0, 151, 180, 86, 100, 126, 144, 25, 58, 182, 7, 97, 65, 34, 95, 142, 155, 179, 226, 188, 83, 0, 209, 169, 28, 85, 96, 151, 254, 151, 36, 200, 53, 137, 154, 122, 151, 120, 0, 179, 160, 64, 171, 118, 175, 109, 214, 226, 32, 149, 160, 236, 167, 184, 135, 141, 190, 190, 145, 228, 123, 97, 136, 113, 181, 60, 108, 132, 87, 112, 196, 60, 162, 138, 255, 85, 124, 178, 183, 36, 91, 26, 137, 34, 140, 157, 141, 190, 57, 52, 156, 160, 155, 0, 131, 106, 0, 125, 146, 132, 188, 157, 86, 85, 0, 255, 71, 226, 250, 46, 93, 102, 206, 174, 47, 0, 160, 112, 113, 120, 197, 120, 226, 159, 126, 121, 179, 82, 24, 239, 165, 227, 58, 234, 75, 198, 157, 211, 100, 109, 159, 140, 114, 82, 93, 152, 156, 234, 173, 48, 171, 115, 106, 90, 137, 158, 142, 58, 184, 44, 175, 145, 111, 178, 81, 163, 181, 255, 255, 74, 119, 167, 0, 195, 78, 93, 119, 79, 141, 143, 171, 144, 61, 131, 106, 53, 124, 203, 190, 161, 96, 159, 118, 181, 137, 255, 27, 156, 182, 116, 97, 91, 13, 60, 18, 169, 67, 85, 212, 93, 105, 104, 160, 84, 164, \
123, 111, 194, 62, 42, 40, 169, 100, 163, 230, 82, 121, 158, 230, 212, 148, 96, 0, 151, 102, 108, 137, 228, 99, 48, 26, 166, 46, 133, 0, 122, 21, 47, 115, 150, 146, 138, 230, 223, 74, 69, 138, 29, 101, 193, 61, 151, 98, 78, 116, 6, 72, 63, 78, 110, 166, 255, 123, 144, 204, 31, 255, 195, 205, 11, 228, 103, 193, 159, 203, 161, 97, 162, 185, 0, 154, 196, 112, 116, 143, 110, 228, 210, 92, 57, 135, 128, 0, 102, 0, 138, 200, 250, 90, 74, 6, 177, 92, 152, 25, 120, 215, 33, 57, 98, 126, 175, 0, 231, 47, 244, 180, 213, 171, 174, 74, 204, 127, 204, 211, 20, 224, 175, 139, 29, 134, 96, 145, 153, 81, 255, 238, 255, 189, 130, 143, 193, 193, 207, 167, 169, 219, 116, 46, 153, 150, 185, 110, 229, 215, 222, 240, 177, 107, 57, 116, 185, 255, 144, 122, 156, 150, 210, 100, 113, 176, 67, 193, 110, 149, 86, 159, 227, 142, 0, 249, 119, 107, 88, 107, 73, 118, 165, 153, 0, 187, 45, 69, 44, 162, 143, 84, 140, 73, 66, 110, 144, 127, 199, 93, 113, 190, 130, 178, 123, 125, 181, 112, 162, 76, 79, 199, 175, 16, 101, 64, 208, 180, 246, 77, 51, 76, 0, 107, 53, 61, 118, 128, 56, 131, 29, 68, 61, 43, 181, 231, 105, 128, 24, 196, 142, 67, 148, 166, 163, 112, 93, 255, 135, 0, 210, 100, 165, 53, 75, 43, 217, 169, 90, 151, 128, 152, 107, 241, 181, 113, 157, 90, 51, 183, 69, 231, 149, 196, 49, 88, 107, 40, 66, 78, 99, 61, 163, 107, 208, 104, 176, 88, 144, 63, 154, 250, 207, 255, 135, 63, 148, 175, 243, 107, 219, 116, 121, 216, 112, 31, 84, 150, 176, 113, 221, 167, 222, 160, 146, 39, 104, 219, 128, 0, 226, 21, 124, 77, 113, 211, 64, 140, 107, 100, 121, 147, 156, 74, 93, 83, 154, 217, 73, 140, 106, 83, 46, 76, 8, 65, 41, 203, 15, 124, 94, 65, 162, 28, 248, 50, 166, 226, 40, 178, 108, 137, 52, 148, 42, 203, 123, 43, 149, 63, 52, 133, 89, 126, 104, 136, 156, 130, 132, 129, 64, 84, 9, 209, 37, 218, 135, 169, 82, 122, 132, 169, 211, 171, 163, 127, 255, 37, 119, 172, 129, 41, 21, 73, 46, 255, 61, 211, 153, 183, 190, 54, 179, 104, 107, 193, 88, 176, 104, 88, 238, 174, 163, 201, 153, 115, 190, 98, 148, 83, 98, 63, 102, 37, 123, 100, 162, 84, 179, 170, 120, 255, 104, 131, 0, 42, 117, 218, 117, 123, 5, 95, 145, 179, 182, 203, 179, 111, 153, 0, 169, 107, 195, 50, 78, 159, 202, 79, 149, 86, 126, 65, 255, 71, 150, 184, 78, 184, 101, 180, 96, 70, 110, 224, 199, 151, 128, 0, 121, 103, 18, 159, 132, 255, 94, 93, 160, 91, 37, 107, 237, 124, 190, 90, 183, 107, 108, 143, 114, 118, 133, 75, \
143, 97, 103, 86, 134, 71, 109, 163, 120, 137, 112, 69, 226, 106, 180, 255, 58, 122, 40, 105, 41, 164, 183, 203, 134, 160, 147, 53, 218, 196, 0, 255, 109, 107, 116, 120, 54, 144, 178, 170, 25, 67, 88, 37, 222, 34, 117, 45, 155, 183, 2, 42, 112, 167, 13, 12, 154, 165, 157, 156, 115, 81, 57, 111, 58, 217, 115, 186, 100, 104, 140, 5, 185, 151, 184, 143, 183, 255, 216, 124, 99, 60, 0, 174, 156, 203, 153, 204, 77, 69, 124, 144, 120, 241, 119, 184, 168, 182, 144, 127, 89, 125, 135, 66, 115, 202, 146, 120, 94, 0, 186, 220, 196, 233, 168, 103, 148, 179, 9, 130, 89, 190, 210, 148, 134, 180, 70, 80, 111, 55, 105, 146, 150, 17, 26, 149, 109, 205, 90, 20, 75, 0, 73, 255, 127, 156, 11, 169, 191, 60, 155, 207, 124, 189, 80, 178, 238, 235, 0, 115, 220, 255, 108, 162, 135, 122, 99, 234, 172, 165, 122, 118, 105, 173, 0, 179, 254, 17, 23, 27, 50, 149, 31, 171, 25, 153, 220, 135, 153, 113, 59, 67, 161, 79, 144, 65, 91, 117, 124, 74, 85, 212, 112, 143, 153, 255, 125, 81, 138, 28, 128, 46, 174, 112, 150, 114, 135, 115, 89, 42, 118, 145, 200, 111, 195, 105, 57, 24, 164, 125, 202, 138, 45, 122, 122, 52, 19, 17, 76, 0, 82, 193, 134, 220, 195, 213, 62, 91, 55, 139, 21, 255, 112, 177, 128, 69, 130, 255, 207, 112, 16, 192, 203, 146, 50, 36, 88, 51, 40, 97, 84, 202, 106, 82, 115, 95, 120, 187, 0, 98, 146, 181, 81, 57, 101, 109, 208, 154, 105, 154, 167, 99, 56, 167, 129, 212, 92, 95, 128, 87, 255, 49, 132, 210, 80, 46, 223, 48, 178, 255, 96, 103, 106, 97, 88, 141, 126, 45, 9, 70, 127, 255, 175, 164, 226, 125, 118, 144, 21, 117, 196, 35, 73, 223, 92, 123, 177, 69, 159, 108, 130, 54, 120, 118, 225, 177, 225, 177, 63, 100, 126, 94, 70, 155, 124, 85, 223, 160, 57, 125, 107, 52, 201, 117, 146, 126, 102, 56, 41, 134, 146, 144, 168, 71, 210, 115, 198, 72, 170, 247, 104, 138, 51, 210, 118, 87, 208, 108, 140, 116, 42, 120, 176, 255, 174, 54, 94, 155, 16, 53, 128, 53, 62, 77, 107, 162, 134, 194, 255, 185, 72, 114, 140, 168, 89, 97, 200, 159, 111, 168, 18, 0, 218, 121, 82, 117, 255, 41, 156, 0, 152, 141, 122, 90, 122, 27, 139, 154, 163, 166, 151, 57, 190, 195, 78, 186, 179, 104, 122, 150, 112, 133, 60, 131, 172, 141, 235, 101, 137, 43, 115, 147, 255, 175, 152, 160, 101, 93, 174, 136, 44, 152, 72, 0, 54, 84, 102, 119, 35, 133, 159, 181, 0, 48, 144, 85, 104, 97, 64, 67, 175, 195, 80, 63, 136, 104, 183, 177, 155, 174, 82, 164, 112, 30, 255, 138, 0, 185, 116, 158, 145, 243, \
28, 190, 80, 0, 128, 108, 112, 255, 79, 187, 97, 90, 71, 78, 157, 233, 36, 84, 125, 155, 255, 167, 176, 186, 222, 154, 104, 66, 173, 53, 251, 148, 108, 100, 116, 113, 130, 118, 196, 40, 186, 115, 142, 100, 76, 91, 106, 81, 101, 51, 171, 171, 142, 255, 48, 68, 79, 70, 110, 71, 103, 201, 134, 106, 31, 189, 102, 114, 109, 30, 24, 186, 116, 221, 255, 186, 241, 111, 125, 164, 25, 94, 85, 28, 129, 241, 137, 132, 200, 50, 163, 118, 110, 49, 52, 225, 167, 104, 118, 187, 66, 78, 87, 46, 151, 146, 110, 77, 205, 90, 217, 14, 192, 156, 6, 80, 208, 137, 149, 95, 0, 96, 43, 6, 0, 255, 178, 104, 217, 141, 192, 122, 56, 128, 202, 178, 91, 211, 185, 96, 186, 91, 149, 125, 24, 162, 255, 131, 220, 128, 83, 123, 164, 115, 142, 111, 131, 137, 215, 54, 188, 46, 0, 115, 233, 104, 33, 117, 100, 247, 134, 186, 229, 154, 202, 39, 128, 130, 221, 46, 47, 199, 168, 75, 177, 148, 165, 79, 4, 11, 66, 200, 110, 80, 126, 30, 79, 164, 255, 128, 213, 152, 174, 171, 156, 127, 211, 72, 26, 60, 140, 103, 0, 166, 142, 210, 195, 157, 168, 5, 166, 121, 112, 192, 0, 214, 124, 46, 10, 128, 156, 67, 87, 176, 105, 73, 56, 83, 119, 122, 212, 135, 255, 176, 247, 149, 110, 66, 149, 194, 204, 192, 107, 90, 106, 151, 162, 91, 22, 51, 255, 84, 124, 100, 90, 98, 186, 141, 77, 167, 61, 148, 45, 65, 4, 159, 136, 151, 45, 107, 208, 172, 164, 168, 102, 143, 131, 128, 159, 157, 56, 214, 233, 255, 141, 108, 207, 222, 160, 92, 134, 0, 147, 96, 38, 197, 81, 233, 133, 247, 107, 255, 129, 64, 15, 177, 67, 30, 194, 116, 77, 68, 123, 202, 28, 169, 148, 148, 70, 235, 158, 100, 30, 116, 241, 149, 31, 128, 49, 86, 113, 55, 33, 85, 239, 117, 117, 114, 85, 255, 64, 112, 47, 120, 141, 183, 108, 179, 19, 171, 185, 25, 75, 94, 180, 76, 63, 109, 255, 184, 199, 98, 113, 0, 180, 79, 212, 94, 16, 194, 74, 126, 104, 142, 108, 177, 49, 113, 184, 105, 0, 158, 44, 125, 65, 159, 179, 0, 188, 136, 75, 44, 119, 142, 139, 3, 167, 253, 105, 60, 45, 135, 139, 90, 83, 106, 110, 231, 102, 108, 105, 192, 178, 127, 93, 201, 184, 90, 217, 32, 103, 112, 108, 29, 185, 236, 131, 121, 159, 43, 63, 142, 130, 190, 49, 184, 93, 105, 0, 211, 89, 83, 204, 189, 255, 162, 1, 24, 89, 153, 40, 43, 148, 159, 137, 94, 190, 220, 185, 229, 38, 205, 11, 89, 167, 0, 30, 74, 135, 106, 61, 99, 84, 89, 67, 104, 105, 130, 156, 136, 164, 151, 117, 154, 58, 158, 148, 116, 166, 133, 114, 185, 24, 50, 194, 81, 178, 147, 59, 178, 205, 45, \
162, 139, 167, 70, 131, 47, 201, 171, 115, 4, 80, 255, 30, 218, 189, 142, 149, 157, 111, 76, 129, 186, 127, 101, 102, 90, 80, 35, 232, 195, 205, 179, 132, 204, 134, 76, 37, 146, 116, 70, 112, 92, 29, 141, 65, 146, 155, 26, 80, 46, 174, 185, 75, 196, 117, 5, 169, 121, 77, 127, 78, 46, 115, 157, 32, 76, 106, 255, 158, 49, 106, 117, 81, 149, 233, 145, 150, 142, 156, 88, 68, 100, 151, 42, 161, 82, 255, 159, 51, 167, 2, 140, 171, 145, 189, 112, 135, 112, 202, 189, 116, 51, 57, 98, 126, 171, 137, 172, 153, 91, 153, 148, 35, 130, 108, 170, 227, 140, 82, 148, 163, 48, 188, 98, 111, 150, 127, 178, 61, 171, 203, 223, 114, 85, 94, 32, 95, 169, 65, 80, 236, 148, 164, 102, 135, 31, 123, 66, 81, 83, 126, 115, 154, 87, 89, 157, 127, 34, 39, 64, 55, 178, 177, 255, 67, 179, 218, 94, 131, 230, 198, 139, 136, 18, 253, 135, 167, 24, 91, 241, 97, 215, 122, 5, 119, 133, 85, 185, 185, 116, 150, 47, 149, 95, 129, 37, 199, 45, 70, 0, 82, 156, 108, 229, 168, 43, 84, 161, 116, 84, 117, 103, 143, 55, 36, 122, 103, 112, 78, 143, 82, 159, 178, 91, 145, 110, 150, 56, 255, 73, 12, 53, 2, 29, 88, 224, 198, 152, 157, 176, 128, 149, 160, 83, 122, 241, 151, 170, 102, 62, 96, 46, 31, 144, 154, 34, 129, 184, 23, 78, 100, 118, 75, 0, 169, 50, 120, 129, 152, 21, 148, 103, 94, 211, 154, 139, 57, 194, 180, 176, 90, 182, 169, 13, 102, 58, 0, 144, 96, 162, 158, 128, 105, 182, 93, 131, 127, 46, 131, 86, 116, 140, 145, 121, 107, 122, 170, 45, 169, 136, 57, 148, 193, 113, 80, 165, 98, 120, 125, 169, 52, 118, 167, 30, 156, 144, 214, 220, 151, 108, 110, 24, 228, 255, 111, 170, 59, 177, 20, 97, 104, 175, 196, 66, 218, 109, 85, 157, 93, 7, 174, 119, 109, 77, 135, 64, 174, 162, 160, 91, 97, 158, 148, 137, 120, 129, 142, 146, 136, 108, 106, 145, 127, 111, 126, 18, 132, 151, 250, 130, 56, 192, 112, 100, 158, 151, 137, 188, 112, 158, 55, 30, 110, 55, 114, 138, 122, 35, 125, 65, 76, 115, 149, 150, 87, 78, 71, 215, 167, 95, 159, 126, 233, 18, 152, 59, 246, 125, 214, 79, 53, 66, 67, 82, 109, 237, 172, 119, 141, 74, 168, 214, 162, 122, 100, 96, 205, 83, 179, 111, 132, 148, 66, 165, 32, 24, 148, 255, 116, 177, 12, 116, 124, 61, 110, 255, 0, 184, 218, 82, 126, 117, 66, 255, 117, 32, 104, 54, 144, 188, 174, 0, 229, 151, 143, 238, 255, 174, 79, 16, 161, 81, 76, 169, 142, 126, 7, 0, 255, 19, 174, 41, 107, 129, 78, 222, 173, 87, 90, 177, 149, 71, 182, 133, 98, 164, 106, 194, 250, 92, 129, 190, \
133, 108, 106, 255, 109, 106, 128, 154, 162, 86, 109, 85, 138, 103, 154, 214, 137, 206, 193, 68, 118, 122, 201, 82, 91, 147, 76, 111, 77, 58, 136, 54, 12, 212, 59, 229, 42, 121, 105, 5, 17, 17, 218, 91, 35, 23, 130, 250, 157, 0, 63, 14, 37, 241, 0, 62, 134, 196, 62, 205, 142, 204, 111, 1, 201, 134, 0, 92, 154, 145, 91, 156, 255, 181, 53, 137, 143, 188, 78, 234, 252, 122, 188, 95, 200, 234, 13, 63, 147, 52, 53, 179, 161, 168, 0, 177, 81, 162, 75, 155, 145, 114, 198, 46, 120, 87, 134, 103, 100, 84, 91, 110, 255, 151, 156, 169, 210, 247, 130, 149, 146, 108, 87, 111, 47, 252, 58, 200, 126, 151, 188, 154, 214, 109, 202, 119, 228, 104, 213, 197, 132, 34, 128, 113, 73, 255, 138, 62, 181, 188, 255, 107, 73, 178, 62, 118, 83, 120, 144, 188, 60, 174, 57, 181, 225, 83, 4, 0, 141, 94, 224, 78, 118, 41, 138, 63, 104, 196, 177, 132, 122, 0, 64, 126, 117, 188, 39, 245, 129, 158, 178, 111, 169, 112, 80, 255, 43, 156, 142, 179, 109, 81, 86, 82, 205, 91, 4, 0, 199, 90, 97, 29, 176, 237, 153, 169, 184, 137, 198, 91, 101, 144, 249, 105, 37, 66, 139, 0, 178, 14, 255, 107, 122, 102, 125, 111, 89, 131, 135, 150, 139, 218, 35, 29, 84, 206, 174, 191, 166, 118, 158, 78, 97, 130, 167, 89, 88, 87, 189, 178, 176, 167, 111, 157, 220, 9, 133, 106, 200, 58, 61, 190, 68, 84, 54, 187, 0, 108, 2, 95, 104, 169, 164, 34, 175, 181, 63, 50, 86, 125, 49, 131, 58, 165, 127, 104, 113, 91, 150, 108, 50, 139, 213, 144, 249, 100, 80, 197, 125, 145, 114, 245, 46, 205, 149, 90, 165, 80, 160, 122, 255, 19, 118, 255, 75, 116, 187, 125, 194, 102, 220, 163, 148, 134, 88, 11, 145, 97, 165, 124, 218, 81, 181, 103, 195, 242, 142, 165, 99, 118, 49, 205, 138, 83, 95, 120, 176, 92, 78, 70, 121, 73, 80, 76, 75, 101, 252, 211, 91, 67, 48, 137, 98, 79, 218, 220, 55, 64, 115, 145, 183, 182, 208, 100, 115, 104, 105, 53, 22, 97, 137, 34, 161, 255, 6, 255, 100, 214, 49, 109, 253, 64, 116, 89, 191, 123, 64, 112, 38, 35, 135, 61, 70, 139, 190, 33, 90, 41, 126, 144, 150, 164, 253, 165, 88, 103, 111, 132, 132, 91, 103, 203, 120, 35, 166, 66, 113, 173, 85, 221, 91, 115, 96, 167, 193, 179, 97, 118, 191, 187, 56, 149, 62, 156, 255, 141, 47, 181, 197, 151, 81, 61, 52, 112, 75, 178, 82, 93, 210, 0, 50, 148, 145, 62, 142, 195, 104, 121, 97, 201, 145, 198, 164, 175, 13, 137, 167, 63, 241, 151, 130, 92, 140, 179, 198, 1, 185, 208, 103, 221, 90, 148, 225, 58, 156, 162, 123, 75, 166, 136, 103, 229, \
94, 70, 223, 119, 65, 107, 162, 105, 117, 255, 139, 0, 129, 197, 194, 20, 87, 159, 198, 191, 126, 156, 95, 158, 94, 247, 78, 110, 159, 141, 82, 96, 132, 45, 132, 197, 238, 160, 113, 88, 111, 57, 167, 101, 90, 39, 121, 198, 99, 128, 198, 142, 159, 96, 139, 65, 150, 202, 70, 54, 141, 170, 66, 126, 161, 187, 84, 190, 78, 106, 184, 31, 59, 97, 177, 238, 55, 140, 242, 180, 0, 212, 29, 69, 107, 185, 187, 193, 149, 158, 152, 192, 111, 158, 153, 164, 160, 143, 226, 28, 0, 194, 35, 141, 119, 219, 158, 151, 185, 57, 93, 157, 202, 117, 51, 185, 183, 82, 206, 68, 173, 213, 91, 60, 156, 255, 27, 56, 148, 125, 180, 189, 61, 203, 21, 151, 67, 122, 186, 99, 193, 91, 41, 12, 125, 156, 146, 216, 130, 197, 121, 124, 94, 167, 48, 137, 59, 120, 165, 161, 16, 156, 160, 255, 244, 114, 147, 192, 36, 117, 178, 28, 21, 0, 131, 107, 88, 201, 173, 116, 79, 114, 107, 196, 113, 146, 117, 81, 255, 108, 217, 135, 56, 72, 115, 112, 82, 153, 172, 255, 130, 68, 168, 212, 230, 164, 0, 133, 66, 93, 137, 80, 144, 48, 183, 170, 137, 147, 21, 179, 165, 29, 128, 165, 128, 105, 168, 48, 99, 120, 128, 31, 0, 10, 92, 4, 159, 152, 156, 92, 38, 84, 203, 130, 189, 67, 100, 221, 153, 144, 130, 156, 178, 113, 109, 146, 72, 239, 147, 122, 201, 229, 139, 203, 212, 119, 159, 49, 69, 127, 169, 144, 56, 131, 67, 129, 5, 226, 152, 155, 190, 115, 166, 146, 67, 217, 147, 255, 76, 173, 109, 200, 76, 255, 237, 142, 70, 179, 97, 255, 173, 70, 61, 109, 153, 80, 84, 49, 95, 81, 151, 120, 120, 192, 59, 87, 121, 115, 147, 48, 26, 173, 129, 97, 154, 84, 188, 0, 84, 215, 25, 129, 172, 151, 80, 153, 118, 95, 167, 90, 194, 213, 100, 190, 133, 154, 216, 121, 12, 231, 147, 215, 35, 189, 98, 49, 57, 134, 43, 171, 153, 92, 135, 81, 223, 105, 143, 41, 152, 206, 184, 197, 83, 168, 133, 57, 142, 0, 255, 45, 103, 179, 138, 190, 0, 102, 32, 109, 118, 180, 60, 135, 157, 173, 15, 222, 153, 91, 195, 75, 91, 78, 249, 211, 149, 151, 167, 197, 67, 113, 143, 113, 156, 255, 152, 255, 39, 155, 61, 185, 216, 119, 90, 93, 107, 157, 255, 245, 219, 171, 147, 140, 203, 29, 210, 210, 149, 255, 255, 55, 210, 195, 128, 251, 190, 51, 96, 255, 113, 185, 119, 20, 192, 206, 119, 69, 90, 118, 97, 102, 89, 77, 155, 143, 128, 123, 48, 172, 124, 159, 214, 174, 0, 106, 134, 174, 190, 134, 14, 152, 99, 86, 179, 106, 74, 57, 92, 255, 133, 120, 177, 90, 246, 75, 160, 136, 154, 109, 112, 88, 119, 102, 104, 160, 113, 152, 114, 142, 133, 93, 28, 82, \
127, 90, 191, 117, 12, 165, 255, 179, 181, 205, 58, 159, 28, 153, 103, 60, 247, 95, 148, 98, 68, 210, 225, 87, 166, 94, 57, 137, 103, 113, 229, 247, 128, 149, 255, 109, 197, 148, 25, 230, 236, 100, 229, 123, 29, 157, 135, 109, 233, 220, 107, 122, 179, 72, 255, 73, 121, 137, 95, 26, 100, 188, 187, 164, 180, 82, 72, 240, 139, 103, 46, 146, 184, 68, 217, 165, 145, 174, 58, 52, 130, 155, 74, 196, 167, 90, 229, 146, 165, 248, 108, 131, 169, 76, 125, 199, 88, 123, 93, 255, 61, 197, 103, 245, 131, 85, 202, 145, 158, 89, 255, 109, 113, 171, 37, 125, 124, 131, 106, 140, 164, 45, 151, 144, 101, 211, 97, 242, 143, 135, 136, 152, 128, 177, 152, 76, 133, 154, 16, 53, 31, 70, 13, 179, 67, 120, 13, 113, 77, 155, 84, 26, 85, 176, 133, 163, 102, 59, 255, 141, 132, 97, 255, 121, 71, 86, 242, 49, 157, 223, 183, 85, 95, 179, 169, 120, 91, 116, 122, 177, 75, 197, 62, 18, 109, 231, 192, 219, 194, 117, 134, 60, 195, 140, 16, 241, 87, 93, 98, 94, 133, 65, 255, 153, 33, 209, 198, 89, 184, 185, 148, 156, 29, 140, 53, 195, 50, 234, 16, 157, 0, 119, 132, 119, 126, 40, 147, 147, 156, 20, 208, 208, 142, 140, 124, 70, 148, 117, 83, 117, 55, 74, 70, 219, 164, 168, 0, 251, 255, 123, 50, 139, 136, 40, 175, 123, 134, 125, 240, 96, 93, 94, 82, 199, 54, 151, 145, 219, 101, 84, 97, 155, 255, 0, 202, 214, 59, 77, 147, 81, 74, 233, 125, 99, 68, 171, 0, 0, 22, 135, 93, 200, 109, 104, 56, 88, 50, 195, 91, 220, 149, 0, 66, 109, 91, 174, 155, 77, 160, 112, 144, 194, 98, 108, 189, 89, 116, 255, 146, 163, 203, 59, 57, 107, 106, 156, 199, 190, 81, 145, 104, 84, 100, 165, 255, 42, 77, 119, 147, 77, 105, 244, 188, 99, 63, 99, 254, 224, 235, 163, 120, 88, 209, 110, 190, 153, 169, 234, 187, 212, 16, 113, 0, 143, 142, 208, 103, 210, 101, 176, 177, 38, 47, 184, 174, 114, 183, 196, 118, 255, 133, 198, 98, 121, 69, 188, 209, 200, 62, 160, 115, 134, 161, 110, 98, 149, 255, 174, 192, 207, 18, 66, 80, 167, 67, 221, 110, 144, 185, 102, 255, 62, 128, 60, 254, 249, 36, 76, 194, 96, 255, 135, 223, 84, 32, 127, 51, 164, 141, 82, 44, 40, 0, 210, 255, 81, 173, 17, 68, 172, 66, 83, 77, 105, 255, 73, 120, 67, 186, 85, 124, 112, 111, 54, 134, 110, 149, 89, 255, 54, 0, 64, 197, 151, 74, 54, 194, 162, 154, 140, 88, 39, 31, 225, 138, 39, 100, 148, 199, 142, 118, 0, 93, 122, 129, 162, 159, 71, 61, 132, 94, 0, 120, 154, 117, 159, 126, 14, 53, 83, 84, 229, 25, 98, 64, 0, 101, 217, 71, 96, 95, 112}

#define OUT_INT8_DATA {255, 0, 164, 0, 145, 0, 0, 0, 0, 0, 255, 0, 241, 0, 126, 255, 255, 0, 0, 255, 89, 255, 124, 0, 146, 0, 94, 0, 0, 0, 0, 255, 255, 0, 167, 117, 0, 0, 183, 0, 135, 0, 255, 0, 255, 9, 247, 255, 80, 0, 0, 255, 255, 255, 0, 0, 255, 0, 255, 0, 163, 148, 0, 255, 255, 0, 255, 151, 215, 0, 159, 218, 0, 78, 255, 0, 120, 0, 151, 255, 108, 0, 0, 255, 255, 255, 0, 0, 255, 0, 235, 0, 175, 0, 0, 255, 255, 0, 255, 255, 166, 0, 255, 0, 0, 36, 255, 0, 255, 0, 255, 73, 159, 0, 0, 255, 255, 255, 0, 0, 255, 0, 66, 0, 255, 0, 0, 203, 255, 113, 255, 255, 93, 0, 21, 193, 255, 0, 255, 0, 182, 0, 255, 255, 129, 0, 0, 255, 255, 255, 0, 0, 255, 0, 0, 0, 255, 0, 0, 255, 255, 0, 255, 0, 255, 0, 151, 0, 0, 0, 255, 0, 167, 24, 205, 255, 255, 0, 0, 255, 54, 255, 0, 0, 255, 0, 255, 0, 246, 0, 0, 212, 255, 0, 255, 255, 239, 0, 134, 62, 33, 0, 255, 0, 215, 0, 255, 255, 255, 0, 0, 255, 255, 255, 0, 0, 255, 0, 103, 0, 148, 0, 186, 255, 255, 0, 255, 47, 0, 0, 249, 0, 40, 0, 254, 0, 0, 0, 255, 255, 255, 0, 0, 255, 255, 149, 0, 0, 255, 0, 247, 0, 255, 68, 0, 255, 37, 0, 0, 255, 255, 130, 255, 45, 146, 0, 133, 0, 0, 0, 255, 255, 245, 0, 0, 255, 255, 255, 0, 0, 142, 0, 0, 0, 0, 0, 0, 255, 255, 240, 255, 113, 0, 0, 0, 255, 0, 0, 255, 0, 67, 0, 255, 182, 255, 0, 0, 255, 255, 255, 0, 0, 255, 0, 201, 0, 225, 0, 0, 255, 255, 80, 255, 33, 16, 0, 214, 167, 115, 0, 255, 0, 0, 0, 166, 255, 0, 0, 0, 255, 255, 255, 0, 0, 255, 0, 0, 0, 255, 0, 0, 131, 255, 0, 255, 0, 87, 0, 62, 238, 0, 0, 218, 0, 197, 0, 255, 209, 49, 0, 0, 255, 255, 231, 0, 0, 255, 0, 255, 0, 255, 91, 0, 255, 255, 0, 173, 77, 0, 0, 255, 0, 186, 0, 255, 0, 88, 0, 180, 255, 255, 0, 0, 255, 255, 255, 0, 0, 255, 0, 255, 0, 82, 0, 0, 255, 212, 0, 255, 0, 0, 195, 0, 172, 168, 80, 0, 0, 255, 0, 0, 255, 102, 0, 0, 255, 255, 255, 0, 0, 238, 0, 76, 0, 255, 0, 64, 255, 255, 0, 96, 249, 255, 0, 255, 0, 0, 0, 17, 0, 46, 0, 255, 255, 0, 0, 0, 255, 255, 255, 0, 0, 255, 0, 202, 0, 0, 0, 0, 255, 255, 255, 168, 0, 0, 0, 255, 255, 139, 0, 255, 0, 0, 127, 255, 255, 0, 0, 0, 218, 255, 0, 0, 0, 255, 0, 0, 0, 255, 0, 27, 124, \
255, 0, 0, 142, 0, 0, 0, 0, 0, 0, 193, 0, 0, 0, 123, 255, 255, 0, 131, 252, 255, 255, 0, 151, 255, 0, 102, 0, 194, 17, 0, 255, 255, 0, 0, 0, 255, 0, 0, 0, 38, 0, 255, 0, 0, 0, 138, 0, 255, 0, 0, 255, 242, 255, 0, 0, 255, 0, 201, 0, 83, 0, 213, 255, 155, 52, 0, 255, 255, 0, 255, 149, 255, 167, 255, 0, 0, 0, 158, 0, 255, 0, 0, 255, 255, 255, 0, 0, 255, 0, 130, 0, 229, 0, 255, 255, 255, 0, 0, 255, 0, 0, 255, 0, 192, 0, 255, 0, 0, 0, 255, 151, 255, 0, 0, 255, 255, 255, 0, 0, 255, 0, 255, 0, 255, 0, 0, 255, 0, 0, 0, 255, 255, 0, 12, 0, 255, 0, 255, 0, 0, 0, 255, 255, 255, 0, 0, 255, 255, 255, 0, 0, 255, 0, 255, 0, 5, 0, 174, 255, 166, 127, 0, 255, 255, 0, 0, 191, 0, 0, 255, 0, 0, 0, 32, 255, 255, 0, 0, 255, 164, 255, 0, 0, 136, 0, 0, 0, 253, 173, 255, 255, 255, 0, 0, 255, 140, 0, 0, 214, 0, 128, 255, 0, 0, 0, 255, 233, 255, 0, 210, 255, 255, 255, 0, 0, 255, 0, 91, 0, 23, 0, 255, 255, 255, 67, 0, 255, 203, 0, 0, 255, 255, 0, 0, 0, 0, 0, 255, 255, 255, 0, 0, 255, 255, 255, 0, 0, 255, 0, 0, 0, 147, 0, 203, 255, 161, 0, 0, 255, 0, 0, 0, 239, 0, 0, 255, 0, 0, 0, 0, 255, 255, 0, 0, 255, 255, 255, 0, 0, 255, 0, 0, 0, 233, 0, 255, 255, 0, 0, 0, 255, 0, 0, 0, 255, 176, 0, 0, 0, 0, 0, 0, 255, 255, 0, 0, 255, 255, 255, 0, 0, 255, 0, 255, 0, 95, 0, 255, 255, 255, 222, 0, 255, 255, 0, 215, 255, 255, 0, 255, 0, 0, 0, 255, 255, 175, 0, 0, 255, 255, 255, 0, 0, 255, 0, 138, 0, 126, 0, 255, 255, 255, 121, 0, 7, 0, 0, 150, 255, 233, 0, 183, 0, 0, 0, 97, 255, 241, 0, 0, 255, 255, 255, 0, 0, 255, 0, 168, 0, 0, 0, 0, 255, 5, 0, 0, 76, 135, 0, 0, 0, 0, 36, 255, 0, 0, 0, 37, 255, 255, 0, 0, 255, 255, 255, 0, 0, 255, 0, 32, 0, 255, 0, 177, 255, 255, 255, 0, 0, 255, 0, 189, 208, 0, 0, 255, 0, 0, 0, 0, 229, 255, 0, 0, 255, 255, 255, 0, 0, 255, 0, 0, 0, 232, 0, 255, 255, 255, 96, 193, 255, 0, 0, 0, 255, 0, 69, 255, 0, 0, 0, 255, 255, 255, 0, 0, 255, 255, 255, 0, 0, 255, 0, 255, 0, 255, 0, 255, 255, 122, 255, 0, 138, 180, 0, 255, 255, 197, 0, 255, 0, 216, 0, 255, 207, 0, 0, 255, 255, 255, 105, 0, 0, 255, 0, 255, 0, 0, 0, 255, 209, \
236, 194, 0, 255, 0, 0, 0, 0, 0, 255, 224, 0, 0, 0, 57, 255, 255, 0, 255, 255, 255, 255, 0, 0, 170, 0, 0, 0, 40, 220, 92, 255, 255, 255, 39, 145, 0, 0, 255, 255, 0, 0, 255, 0, 0, 0, 27, 255, 255, 0, 0, 255, 255, 255, 0, 0, 255, 0, 255, 0, 75, 0, 121, 255, 255, 0, 163, 255, 255, 0, 0, 222, 103, 62, 190, 0, 11, 0, 255, 255, 255, 0, 0, 255, 255, 255, 0, 0, 255, 0, 116, 0, 255, 0, 0, 255, 255, 0, 44, 255, 190, 0, 0, 255, 158, 255, 120, 0, 0, 0, 255, 255, 255, 0, 0, 255, 255, 255, 0, 0, 255, 0, 0, 0, 111, 0, 0, 255, 255, 0, 61, 255, 143, 0, 0, 168, 255, 0, 255, 0, 205, 0, 250, 230, 255, 0, 0, 255, 255, 255, 0, 0, 255, 0, 115, 0, 255, 0, 138, 255, 255, 122, 0, 255, 4, 0, 0, 108, 0, 14, 4, 0, 0, 0, 54, 255, 255, 0, 0, 255, 255, 255, 0, 0, 255, 0, 0, 0, 255, 255, 255, 255, 255, 0, 0, 255, 255, 0, 0, 255, 238, 0, 38, 0, 0, 0, 0, 255, 255, 0, 0, 255, 255, 255, 0, 0, 255, 0, 0, 0, 255, 0, 255, 255, 255, 48, 61, 255, 78, 0, 31, 0, 0, 255, 255, 0, 0, 0, 255, 255, 3, 0, 0, 255, 255, 255, 0, 0, 255, 0, 112, 0, 255, 0, 255, 255, 255, 103, 0, 255, 0, 0, 0, 255, 0, 0, 78, 0, 0, 0, 255, 255, 255, 0, 0, 255, 0, 255, 0, 187, 255, 0, 156, 0, 86, 255, 255, 255, 255, 181, 0, 142, 255, 0, 96, 255, 255, 0, 0, 0, 0, 0, 91, 255, 255, 0, 0, 255, 255, 255, 0, 0, 255, 0, 0, 0, 150, 0, 255, 255, 255, 13, 0, 248, 57, 0, 0, 255, 255, 0, 244, 0, 0, 0, 160, 255, 255, 0, 124, 255, 255, 255, 0, 0, 255, 0, 255, 0, 0, 0, 255, 255, 255, 0, 0, 255, 97, 0, 0, 255, 152, 0, 115, 0, 0, 0, 255, 255, 255, 0, 0, 255, 255, 255, 0, 0, 255, 0, 122, 0, 255, 146, 181, 255, 255, 175, 72, 255, 0, 0, 0, 255, 200, 49, 255, 0, 0, 0, 0, 207, 255, 0, 0, 255, 255, 255, 0, 0, 255, 0, 149, 0, 255, 0, 255, 255, 255, 0, 0, 255, 255, 0, 255, 255, 49, 67, 255, 0, 0, 0, 255, 255, 120, 0, 0, 255, 255, 255, 0, 0, 255, 0, 33, 0, 255, 0, 219, 255, 5, 0, 0, 45, 0, 0, 237, 255, 255, 0, 255, 0, 0, 0, 0, 255, 154, 0, 0, 255, 255, 255, 0, 0, 255, 0, 0, 0, 0, 0, 49, 255, 255, 255, 0, 0, 153, 0, 19, 255, 255, 0, 255, 0, 119, 0, 255, 239, 0, 0, 38, 255, 255, 67, 0, 0, 255, 0, 0, 0, 0, 0, 255, 255, \
255, 90, 0, 176, 157, 0, 0, 0, 0, 0, 0, 0, 0, 0, 0, 255, 255, 0, 0, 255, 255, 255, 0, 0, 0, 0, 0, 0, 163, 162, 0, 255, 255, 0, 0, 255, 168, 0, 0, 0, 58, 255, 207, 0, 79, 0, 255, 255, 185, 0, 0, 255, 182, 255, 0, 0, 255, 0, 255, 0, 255, 0, 0, 255, 255, 0, 0, 0, 0, 0, 108, 255, 0, 0, 255, 0, 0, 0, 0, 217, 255, 0, 0, 255, 255, 255, 0, 0, 255, 0, 255, 0, 0, 0, 204, 255, 255, 42, 0, 254, 200, 0, 251, 247, 0, 118, 255, 0, 14, 0, 0, 180, 255, 0, 0, 255, 255, 255, 0, 0, 255, 0, 255, 0, 255, 0, 182, 255, 255, 0, 0, 255, 62, 0, 0, 255, 255, 0, 241, 0, 0, 0, 193, 255, 255, 0, 57, 255, 255, 255, 0, 0, 255, 0, 198, 65, 0, 0, 124, 255, 175, 0, 0, 255, 0, 0, 255, 223, 0, 0, 0, 0, 0, 0, 255, 168, 255, 0, 0, 255, 255, 255, 0, 0, 238, 0, 216, 0, 255, 238, 0, 255, 255, 0, 0, 255, 255, 0, 0, 183, 91, 0, 255, 0, 0, 0, 105, 255, 255, 0, 0, 255, 255, 255, 0, 0, 255, 0, 255, 0, 0, 0, 0, 255, 255, 0, 0, 255, 21, 0, 0, 255, 255, 0, 255, 0, 0, 0, 211, 255, 255, 0, 0, 255, 255, 255, 0, 0, 255, 0, 12, 0, 0, 0, 255, 255, 255, 0, 0, 235, 255, 0, 0, 255, 255, 0, 245, 0, 0, 0, 57, 255, 255, 0, 0, 255, 255, 255, 0, 0, 255, 0, 255, 0, 79, 0, 139, 255, 255, 223, 37, 36, 249, 0, 84, 255, 0, 150, 255, 0, 0, 0, 206, 255, 0, 0, 0, 255, 255, 255, 0, 0, 255, 0, 154, 0, 255, 0, 255, 255, 255, 56, 0, 255, 255, 0, 39, 255, 0, 197, 255, 0, 0, 0, 255, 255, 255, 0, 27, 255, 255, 255, 0, 0, 255, 0, 67, 0, 0, 0, 132, 255, 255, 0, 0, 255, 255, 0, 0, 255, 255, 0, 255, 0, 0, 0, 255, 255, 255, 0, 0, 255, 255, 255, 0, 53, 255, 0, 255, 0, 255, 0, 255, 255, 255, 171, 0, 236, 0, 0, 0, 255, 103, 0, 0, 0, 0, 0, 0, 255, 0, 0, 0, 255, 255, 255, 0, 0, 255, 0, 175, 0, 29, 0, 255, 255, 255, 0, 0, 255, 255, 0, 46, 204, 249, 0, 255, 0, 0, 0, 97, 255, 255, 0, 0, 255, 255, 255, 0, 0, 255, 0, 150, 0, 0, 40, 255, 255, 255, 0, 0, 255, 218, 0, 80, 255, 101, 0, 255, 0, 0, 0, 237, 255, 47, 0, 0, 255, 255, 255, 0, 0, 255, 0, 194, 0, 0, 0, 0, 255, 255, 243, 0, 75, 0, 0, 255, 255, 255, 0, 255, 0, 0, 49, 0, 255, 169, 0, 0, 255, 255, 0, 0, 0, 255, 0, 104, 0, 12, 0, 255, 255, \
245, 255, 0, 255, 161, 0, 0, 53, 0, 114, 0, 0, 0, 0, 255, 255, 255, 10, 0, 255, 255, 255, 0, 156, 187, 0, 255, 0, 181, 37, 0, 255, 255, 255, 0, 209, 255, 0, 168, 200, 1, 0, 255, 0, 0, 0, 31, 255, 255, 0, 0, 255, 255, 255, 0, 0, 255, 0, 255, 0, 133, 28, 255, 255, 255, 255, 11, 255, 0, 0, 89, 255, 151, 0, 255, 0, 0, 0, 93, 6, 255, 0, 0, 255, 255, 255, 0, 0, 255, 0, 255, 0, 255, 0, 0, 255, 255, 8, 0, 255, 0, 0, 67, 255, 255, 0, 255, 0, 0, 0, 255, 255, 255, 0, 0, 255, 255, 255, 0, 0, 255, 0, 14, 0, 73, 0, 0, 255, 255, 35, 0, 78, 200, 0, 0, 255, 255, 0, 17, 0, 0, 0, 220, 141, 255, 0, 0, 255, 255, 255, 0, 0, 255, 0, 255, 0, 255, 222, 255, 255, 255, 65, 0, 255, 255, 0, 0, 255, 43, 0, 255, 0, 0, 0, 255, 255, 255, 0, 0, 255, 255, 255, 0, 0, 255, 0, 200, 0, 255, 0, 56, 255, 243, 121, 38, 253, 0, 0, 255, 142, 0, 0, 151, 0, 0, 0, 255, 255, 255, 0, 0, 255, 171, 255, 0, 0, 255, 0, 199, 0, 255, 29, 0, 255, 255, 0, 0, 255, 0, 0, 0, 100, 255, 0, 73, 0, 0, 0, 255, 255, 237, 0, 0, 255, 255, 255, 0, 0, 255, 0, 255, 0, 0, 0, 255, 255, 168, 114, 116, 31, 255, 0, 255, 255, 124, 0, 239, 0, 0, 0, 90, 253, 230, 0, 0, 255, 255, 255, 0, 0, 255, 0, 255, 0, 255, 0, 125, 255, 255, 0, 0, 255, 0, 0, 0, 255, 255, 0, 255, 0, 0, 0, 255, 188, 183, 0, 0, 255, 255, 255, 0, 0, 255, 0, 206, 0, 234, 0, 58, 255, 224, 0, 0, 255, 0, 0, 0, 255, 127, 0, 255, 0, 0, 0, 26, 255, 255, 0, 0, 255, 255, 255, 0, 0, 255, 0, 0, 0, 255, 233, 223, 255, 229, 255, 0, 255, 255, 0, 243, 255, 30, 61, 255, 0, 0, 0, 192, 77, 255, 0, 0, 255, 255, 255, 0, 0, 255, 0, 255, 0, 255, 0, 255, 255, 255, 255, 0, 17, 175, 0, 0, 255, 246, 0, 255, 0, 0, 0, 255, 255, 255, 0, 0, 255, 255, 255, 0, 0, 255, 0, 243, 0, 0, 164, 255, 255, 0, 255, 0, 191, 255, 0, 135, 255, 84, 0, 255, 0, 0, 0, 75, 255, 255, 0, 0, 255, 255, 255, 0, 0, 255, 0, 133, 0, 203, 0, 0, 255, 0, 161, 0, 255, 255, 0, 0, 255, 0, 0, 110, 0, 0, 0, 255, 255, 255, 0, 0, 255, 255, 255, 0, 0, 255, 0, 113, 0, 0, 0, 255, 255, 255, 255, 241, 66, 255, 0, 255, 255, 255, 0, 255, 0, 180, 0, 255, 255, 222, 0, 182, 255, 255, 0, 0, 0, 255, 0, 0, 0, 0, 0, 175, 0, \
234, 0, 15, 255, 0, 0, 0, 0, 0, 168, 0, 0, 0, 0, 255, 255, 255, 0, 0, 255, 255, 255, 0, 0, 39, 0, 155, 0, 0, 255, 0, 255, 255, 0, 21, 255, 0, 0, 0, 255, 0, 213, 255, 0, 0, 0, 241, 255, 255, 0, 0, 255, 255, 255, 0, 0, 255, 0, 0, 0, 155, 0, 0, 255, 255, 255, 46, 255, 255, 0, 255, 255, 255, 0, 0, 0, 0, 0, 160, 173, 255, 0, 0, 255, 255, 255, 0, 0, 255, 0, 255, 0, 0, 0, 255, 255, 255, 0, 0, 68, 0, 0, 71, 0, 67, 0, 255, 0, 0, 0, 255, 255, 61, 0, 0, 255, 255, 255, 0, 0, 255, 0, 255, 0, 255, 0, 0, 255, 0, 179, 0, 255, 255, 0, 229, 255, 201, 29, 255, 0, 0, 0, 0, 52, 255, 0, 0, 255, 255, 255, 0, 0, 255, 0, 206, 0, 0, 220, 25, 255, 255, 0, 224, 255, 0, 0, 0, 73, 0, 0, 255, 0, 0, 0, 255, 255, 255, 0, 0, 255, 255, 255, 0, 0, 255, 0, 164, 0, 0, 0, 110, 255, 237, 8, 0, 255, 222, 0, 0, 255, 236, 251, 255, 0, 0, 0, 147, 255, 255, 0, 0, 255, 255, 255, 0, 0, 255, 0, 41, 0, 255, 255, 255, 255, 255, 255, 53, 255, 255, 0, 0, 255, 0, 157, 32, 0, 0, 0, 102, 255, 255, 0, 0, 255, 255, 255, 0, 0, 255, 0, 255, 0, 49, 0, 151, 255, 255, 126, 0, 255, 0, 0, 0, 255, 255, 0, 0, 0, 0, 0, 148, 255, 176, 0, 12, 255, 255, 255, 0, 0, 255, 0, 139, 0, 140, 255, 140, 255, 255, 24, 4, 255, 0, 0, 176, 168, 14, 0, 118, 0, 0, 0, 253, 255, 255, 0, 0, 255, 255, 255, 0, 0, 255, 0, 255, 0, 42, 0, 49, 255, 255, 255, 184, 255, 0, 0, 92, 255, 0, 0, 247, 0, 0, 0, 255, 255, 138, 0, 0, 255, 255, 255, 0, 0, 255, 0, 194, 0, 255, 0, 166, 255, 255, 105, 0, 255, 255, 0, 0, 255, 36, 0, 161, 0, 0, 0, 0, 255, 255, 0, 0, 255, 255, 255, 0, 0, 255, 0, 218, 0, 255, 0, 255, 255, 255, 123, 95, 255, 255, 0, 0, 255, 255, 157, 117, 0, 0, 0, 0, 255, 255, 0, 0, 255, 255, 255, 0, 0, 255, 0, 67, 0, 255, 0, 0, 255, 255, 255, 243, 255, 0, 0, 173, 255, 36, 0, 190, 0, 0, 0, 255, 255, 52, 0, 0, 255, 255, 255, 0, 0, 255, 0, 113, 0, 255, 0, 0, 255, 255, 0, 0, 0, 0, 0, 0, 255, 255, 215, 255, 0, 0, 0, 0, 217, 255, 0, 0, 255, 255, 255, 0, 0, 255, 0, 255, 0, 152, 126, 109, 255, 255, 255, 255, 245, 0, 0, 26, 255, 66, 65, 223, 0, 0, 0, 255, 255, 0, 0, 237, 255, 116, 255, 0, 0, 255, 0, 0, 0, 0, 0, 255, 38, \
255, 0, 16, 0, 211, 0, 0, 0, 0, 255, 0, 0, 0, 0, 149, 255, 255, 0, 0, 255, 255, 255, 0, 0, 4, 0, 129, 0, 0, 217, 0, 255, 255, 85, 93, 255, 0, 0, 0, 101, 145, 142, 247, 0, 0, 0, 255, 255, 255, 0, 0, 255, 255, 255, 0, 0, 255, 0, 255, 0, 255, 0, 40, 255, 0, 0, 0, 255, 162, 0, 255, 255, 106, 0, 255, 0, 0, 0, 1, 255, 201, 0, 0, 255, 255, 255, 0, 0, 255, 0, 255, 0, 0, 0, 32, 255, 255, 153, 97, 255, 0, 0, 0, 255, 1, 0, 255, 0, 0, 0, 155, 255, 194, 0, 0, 255, 255, 255, 0, 0, 255, 0, 255, 44, 49, 107, 255, 255, 255, 0, 0, 255, 0, 0, 255, 255, 255, 1, 92, 0, 0, 0, 255, 241, 119, 0, 0, 255, 255, 255, 0, 0, 183, 0, 194, 0, 121, 255, 255, 255, 255, 22, 0, 255, 0, 0, 47, 251, 255, 0, 46, 0, 0, 0, 255, 255, 255, 0, 0, 255, 255, 255, 0, 0, 255, 0, 255, 0, 253, 0, 187, 255, 63, 88, 0, 255, 117, 0, 94, 255, 0, 0, 255, 0, 0, 0, 255, 255, 255, 0, 0, 255, 255, 255, 0, 0, 255, 0, 98, 0, 19, 13, 73, 255, 255, 131, 0, 0, 238, 0, 3, 255, 251, 0, 255, 0, 0, 0, 0, 19, 255, 0, 0, 255, 255, 255, 0, 0, 255, 0, 171, 0, 255, 0, 212, 255, 255, 193, 0, 190, 0, 0, 0, 255, 255, 0, 255, 0, 22, 0, 255, 255, 255, 0, 0, 255, 255, 255, 0, 0, 255, 0, 9, 0, 0, 0, 0, 255, 255, 255, 0, 255, 109, 0, 255, 255, 6, 215, 195, 0, 0, 0, 0, 255, 114, 0, 0, 255, 255, 255, 0, 0, 255, 0, 255, 0, 255, 0, 255, 255, 255, 0, 23, 255, 0, 0, 0, 255, 0, 0, 60, 0, 0, 0, 255, 255, 255, 0, 0, 255, 255, 255, 0, 0, 255, 0, 103, 0, 0, 0, 255, 255, 255, 255, 8, 255, 0, 0, 80, 255, 0, 35, 0, 0, 0, 0, 255, 255, 0, 0, 0, 255, 255, 255, 0, 0, 255, 0, 0, 0, 212, 0, 255, 255, 244, 0, 71, 255, 0, 0, 50, 0, 255, 0, 0, 0, 0, 0, 255, 255, 255, 0, 0, 255, 255, 255, 0, 0, 255, 0, 255, 0, 0, 0, 152, 255, 255, 100, 0, 255, 255, 0, 0, 0, 214, 0, 204, 0, 0, 0, 255, 2, 255, 0, 0, 255, 255, 255, 0, 0, 255, 0, 255, 0, 92, 0, 255, 255, 255, 0, 118, 255, 216, 0, 0, 255, 208, 132, 169, 0, 0, 0, 0, 255, 255, 0, 0, 255, 255, 255, 0, 0, 255, 0, 0, 0, 0, 255, 255, 255, 255, 0, 198, 0, 0, 0, 243, 255, 221, 0, 0, 0, 0, 0, 201, 248, 0, 0, 236, 255, 0, 0, 0, 0, 255, 97, 95, 0, 0, 0, 255, 0, \
255, 92, 0, 188, 81, 0, 0, 0, 0, 255, 0, 0, 0, 0, 0, 255, 255, 0, 0, 255, 255, 255, 0, 0, 255, 0, 255, 0, 125, 0, 0, 255, 255, 0, 0, 250, 108, 0, 0, 255, 0, 0, 255, 0, 0, 0, 255, 255, 255, 0, 0, 255, 255, 255, 0, 0, 255, 0, 60, 0, 0, 0, 72, 255, 255, 0, 0, 170, 197, 0, 0, 0, 17, 255, 255, 0, 0, 0, 255, 255, 255, 0, 0, 255, 95, 255, 0, 0, 255, 0, 255, 0, 27, 0, 255, 255, 255, 247, 0, 255, 0, 0, 7, 178, 102, 0, 76, 0, 0, 0, 255, 255, 255, 0, 0, 255, 255, 255, 0, 0, 255, 0, 255, 0, 255, 0, 0, 255, 255, 0, 0, 255, 192, 0, 255, 255, 255, 0, 255, 0, 0, 0, 144, 255, 242, 0, 0, 255, 255, 255, 0, 0, 255, 0, 255, 0, 255, 0, 0, 255, 255, 0, 0, 198, 0, 0, 0, 255, 0, 0, 255, 0, 0, 0, 0, 252, 255, 0, 0, 255, 255, 255, 0, 0, 255, 0, 0, 0, 0, 0, 0, 255, 255, 255, 0, 255, 239, 0, 0, 255, 255, 0, 229, 0, 0, 0, 255, 255, 255, 0, 0, 255, 255, 255, 0, 0, 255, 0, 255, 0, 255, 90, 19, 255, 255, 0, 0, 255, 255, 0, 0, 255, 255, 0, 255, 0, 0, 0, 31, 255, 255, 0, 0, 255, 255, 255, 0, 0, 255, 0, 255, 0, 182, 0, 255, 255, 255, 198, 0, 16, 207, 0, 45, 255, 0, 0, 255, 0, 0, 0, 162, 255, 255, 0, 0, 255, 255, 255, 0, 0, 255, 0, 0, 0, 158, 0, 255, 255, 255, 252, 97, 255, 60, 0, 192, 220, 10, 0, 255, 0, 0, 0, 204, 255, 255, 0, 0, 255, 255, 255, 0, 0, 255, 0, 115, 0, 255, 0, 155, 255, 255, 0, 91, 17, 136, 0, 36, 255, 178, 0, 255, 0, 0, 0, 0, 255, 255, 0, 0, 255, 255, 255, 0, 0, 255, 0, 255, 0, 8, 0, 142, 255, 255, 0, 55, 255, 255, 0, 0, 255, 255, 0, 255, 0, 0, 0, 255, 197, 255, 0, 0, 255, 255, 255, 0, 0, 255, 0, 208, 0, 255, 0, 236, 255, 255, 95, 0, 255, 0, 0, 0, 255, 0, 19, 0, 0, 0, 0, 29, 255, 255, 0, 0, 255, 255, 255, 0, 0, 255, 0, 255, 0, 0, 0, 228, 255, 255, 0, 0, 253, 11, 0, 0, 255, 21, 0, 255, 0, 0, 0, 0, 255, 255, 0, 0, 255, 255, 255, 0, 0, 255, 0, 255, 0, 255, 0, 0, 255, 255, 112, 0, 255, 0, 0, 255, 255, 0, 229, 255, 0, 0, 0, 255, 255, 255, 0, 0, 255, 255, 255, 0, 0, 255, 0, 255, 0, 255, 0, 149, 255, 255, 255, 0, 224, 0, 0, 255, 255, 35, 255, 255, 0, 0, 0, 206, 105, 0, 0, 0, 255, 255, 109, 0, 0, 255, 0, 255, 0, 0, 0, 255, 255, \
255, 0, 152, 69, 0, 0, 0, 0, 0, 186, 181, 0, 0, 0, 119, 255, 255, 0, 0, 255, 255, 255, 0, 0, 230, 0, 112, 0, 0, 0, 0, 255, 255, 255, 0, 255, 255, 0, 255, 64, 187, 0, 255, 0, 0, 0, 255, 255, 255, 0, 0, 255, 255, 255, 0, 0, 255, 0, 255, 0, 255, 0, 255, 255, 59, 3, 0, 255, 255, 0, 223, 161, 255, 0, 138, 0, 0, 0, 255, 255, 255, 0, 0, 255, 255, 255, 0, 0, 255, 0, 255, 0, 0, 0, 0, 255, 25, 3, 255, 255, 48, 0, 255, 175, 218, 0, 115, 0, 0, 0, 0, 255, 198, 0, 0, 255, 255, 255, 0, 0, 255, 0, 7, 0, 0, 0, 247, 255, 255, 0, 0, 255, 255, 0, 0, 255, 122, 141, 255, 0, 0, 0, 255, 255, 177, 0, 0, 255, 255, 255, 0, 0, 255, 0, 224, 0, 145, 0, 152, 255, 255, 233, 60, 255, 0, 0, 0, 242, 5, 68, 255, 0, 10, 0, 255, 255, 255, 0, 0, 255, 255, 255, 0, 0, 255, 0, 0, 0, 255, 0, 0, 255, 252, 169, 0, 255, 255, 0, 255, 255, 28, 255, 0, 0, 0, 0, 255, 255, 255, 0, 0, 255, 191, 255, 0, 0, 255, 0, 0, 0, 255, 0, 255, 255, 255, 164, 0, 255, 0, 0, 0, 255, 75, 0, 0, 0, 0, 0, 255, 255, 255, 0, 0, 255, 255, 255, 0, 0, 255, 0, 255, 0, 0, 0, 255, 255, 235, 31, 108, 61, 5, 0, 151, 255, 43, 0, 235, 0, 196, 0, 255, 255, 0, 0, 255, 255, 255, 255, 0, 36, 255, 0, 255, 0, 23, 255, 187, 255, 255, 255, 0, 218, 10, 0, 255, 255, 255, 74, 255, 0, 0, 0, 255, 255, 255, 0, 0, 255, 255, 255, 0, 0, 255, 0, 255, 0, 214, 0, 0, 255, 255, 255, 0, 255, 47, 0, 0, 245, 159, 209, 0, 0, 0, 0, 20, 255, 255, 0, 0, 255, 255, 255, 0, 0, 255, 0, 0, 0, 255, 111, 255, 255, 255, 0, 0, 255, 0, 0, 58, 161, 0, 255, 255, 0, 0, 0, 255, 255, 255, 0, 0, 255, 255, 255, 0, 0, 255, 0, 81, 0, 0, 0, 255, 255, 255, 255, 0, 243, 255, 0, 0, 255, 60, 255, 46, 0, 0, 0, 0, 255, 206, 0, 0, 255, 255, 255, 0, 0, 255, 0, 174, 0, 255, 0, 223, 255, 255, 0, 0, 255, 0, 0, 0, 255, 85, 0, 255, 0, 0, 0, 255, 255, 255, 0, 0, 255, 255, 255, 0, 0, 255, 0, 255, 0, 0, 0, 255, 255, 255, 0, 0, 255, 0, 0, 0, 255, 0, 0, 255, 0, 0, 0, 0, 255, 255, 0, 0, 255, 255, 255, 0, 0, 255, 0, 255, 0, 155, 0, 72, 255, 255, 61, 0, 0, 159, 0, 255, 255, 255, 28, 255, 0, 174, 0, 43, 255, 255, 0, 255, 255, 255, 255, 0, 0, 255, 0, 0, 0, 0, 0, 77, 24, \
